{"learner":{"attributes":{"scikit_learn":"{\"_estimator_type\": \"regressor\"}"},"feature_names":[],"feature_types":[],"gradient_booster":{"model":{"cats":{"enc":[],"feature_segments":[],"sorted_idx":[]},"gbtree_model_param":{"num_parallel_tree":"1","num_trees":"200"},"iteration_indptr":[0,1,2,3,4,5,6,7,8,9,10,11,12,13,14,15,16,17,18,19,20,21,22,23,24,25,26,27,28,29,30,31,32,33,34,35,36,37,38,39,40,41,42,43,44,45,46,47,48,49,50,51,52,53,54,55,56,57,58,59,60,61,62,63,64,65,66,67,68,69,70,71,72,73,74,75,76,77,78,79,80,81,82,83,84,85,86,87,88,89,90,91,92,93,94,95,96,97,98,99,100,101,102,103,104,105,106,107,108,109,110,111,112,113,114,115,116,117,118,119,120,121,122,123,124,125,126,127,128,129,130,131,132,133,134,135,136,137,138,139,140,141,142,143,144,145,146,147,148,149,150,151,152,153,154,155,156,157,158,159,160,161,162,163,164,165,166,167,168,169,170,171,172,173,174,175,176,177,178,179,180,181,182,183,184,185,186,187,188,189,190,191,192,193,194,195,196,197,198,199,200],"tree_info":[0,0,0,0,0,0,0,0,0,0,0,0,0,0,0,0,0,0,0,0,0,0,0,0,0,0,0,0,0,0,0,0,0,0,0,0,0,0,0,0,0,0,0,0,0,0,0,0,0,0,0,0,0,0,0,0,0,0,0,0,0,0,0,0,0,0,0,0,0,0,0,0,0,0,0,0,0,0,0,0,0,0,0,0,0,0,0,0,0,0,0,0,0,0,0,0,0,0,0,0,0,0,0,0,0,0,0,0,0,0,0,0,0,0,0,0,0,0,0,0,0,0,0,0,0,0,0,0,0,0,0,0,0,0,0,0,0,0,0,0,0,0,0,0,0,0,0,0,0,0,0,0,0,0,0,0,0,0,0,0,0,0,0,0,0,0,0,0,0,0,0,0,0,0,0,0,0,0,0,0,0,0,0,0,0,0,0,0,0,0,0,0,0,0,0,0,0,0,0,0],"trees":[{"base_weights":[-3.353125E0,-9.790509E1,1.6725417E2,-1.3521875E2,6.7152777E0,4.2291668E1,1.0248012E1,-7.539453E0,-2.4270835E0,-4.28125E-1,8.645833E-1,5.828125E-1,2.5828125E0],"categories":[],"categories_nodes":[],"categories_segments":[],"categories_sizes":[],"default_left":[0,0,0,0,0,0,0,0,0,0,0,0,0],"id":0,"left_children":[1,3,5,7,9,11,-1,-1,-1,-1,-1,-1,-1],"loss_changes":[6.779656E5,1.0728203E5,5.321778E4,1.2253031E4,1.7547377E3,4.8543457E2,0E0,0E0,0E0,0E0,0E0,0E0,0E0],"parents":[2147483647,0,0,1,1,2,2,3,3,4,4,5,5],"right_children":[2,4,6,8,10,12,-1,-1,-1,-1,-1,-1,-1],"split_conditions":[1.42E0,9E-1,2.15E0,1.553E1,3.5E-1,1.27E1,1.0248012E1,-7.539453E0,-2.4270835E0,-4.28125E-1,8.645833E-1,5.828125E-1,2.5828125E0],"split_indices":[0,2,0,15,7,1,0,0,0,0,0,0,0],"split_type":[0,0,0,0,0,0,0,0,0,0,0,0,0],"sum_hessian":[3.8E1,2.5E1,1.3E1,1.8E1,7E0,4E0,9E0,1.4E1,4E0,3E0,4E0,2E0,2E0],"tree_param":{"num_deleted":"0","num_feature":"24","num_nodes":"13","size_leaf_vector":"1"}},{"base_weights":[1.7176075E-1,-9.475326E1,2.046377E2,-1.25733864E2,1.4069202E1,2.218242E0,1.1283321E1,-7.360582E0,-3.0970578E0,7.7343754E-2,8.822177E-1],"categories":[],"categories_nodes":[],"categories_segments":[],"categories_sizes":[],"default_left":[0,0,0,0,0,0,0,0,0,0,0],"id":1,"left_children":[1,3,5,7,9,-1,-1,-1,-1,-1,-1],"loss_changes":[7.9578356E5,9.799258E4,2.3656E4,1.1801281E4,2.939707E2,0E0,0E0,0E0,0E0,0E0,0E0],"parents":[2147483647,0,0,1,1,2,2,3,3,4,4],"right_children":[2,4,6,8,10,-1,-1,-1,-1,-1,-1],"split_conditions":[3.057E1,3.9E0,2.15E0,1.414E1,5.15E0,2.218242E0,1.1283321E1,-7.360582E0,-3.0970578E0,7.7343754E-2,8.822177E-1],"split_indices":[17,12,0,16,12,0,0,0,0,0,0],"split_type":[0,0,0,0,0,0,0,0,0,0,0],"sum_hessian":[3.7E1,2.6E1,1.1E1,2E1,6E0,2E0,9E0,1.3E1,7E0,2E0,4E0],"tree_param":{"num_deleted":"0","num_feature":"24","num_nodes":"11","size_leaf_vector":"1"}},{"base_weights":[-1.1882461E1,-9.013874E1,1.5961156E2,-1.2665335E2,6.92294E0,1.5812033E0,9.759546E0,-6.9016976E0,-7.41708E-1,-3.556604E-1,8.197708E-1],"categories":[],"categories_nodes":[],"categories_segments":[],"categories_sizes":[],"default_left":[0,0,0,0,0,0,0,0,0,0,0],"id":2,"left_children":[1,3,5,7,9,-1,-1,-1,-1,-1,-1],"loss_changes":[5.1187706E5,9.396191E4,4.2185688E4,2.0007125E4,1.4345028E3,0E0,0E0,0E0,0E0,0E0,0E0],"parents":[2147483647,0,0,1,1,2,2,3,3,4,4],"right_children":[2,4,6,8,10,-1,-1,-1,-1,-1,-1],"split_conditions":[2.997E1,2.9E0,1.9E0,1.7047E1,3.5E-1,1.5812033E0,9.759546E0,-6.9016976E0,-7.41708E-1,-3.556604E-1,8.197708E-1],"split_indices":[17,12,0,17,8,0,0,0,0,0,0],"split_type":[0,0,0,0,0,0,0,0,0,0,0],"sum_hessian":[3.4E1,2.4E1,1E1,1.7E1,7E0,3E0,7E0,1.5E1,2E0,3E0,4E0],"tree_param":{"num_deleted":"0","num_feature":"24","num_nodes":"11","size_leaf_vector":"1"}},{"base_weights":[-9.66952E0,-8.308278E1,1.9990462E2,-1.1664212E2,8.248968E0,3.079538E0,1.1613342E1,-2.7035365E0,-6.9848404E0,-4.3362528E-1,1.0233835E0],"categories":[],"categories_nodes":[],"categories_segments":[],"categories_sizes":[],"default_left":[0,0,0,0,0,0,0,0,0,0,0],"id":3,"left_children":[1,3,5,7,9,-1,-1,-1,-1,-1,-1],"loss_changes":[7.101217E5,1.0618969E5,2.4955812E4,2.0860219E4,2.6352522E3,0E0,0E0,0E0,0E0,0E0,0E0],"parents":[2147483647,0,0,1,1,2,2,3,3,4,4],"right_children":[2,4,6,8,10,-1,-1,-1,-1,-1,-1],"split_conditions":[7.8E0,3.9E0,2.3E0,1.3308E2,3.5E-1,3.079538E0,1.1613342E1,-2.7035365E0,-6.9848404E0,-4.3362528E-1,1.0233835E0],"split_indices":[19,12,0,21,8,0,0,0,0,0,0],"split_type":[0,0,0,0,0,0,0,0,0,0,0],"sum_hessian":[4.2E1,3.2E1,1E1,2.3E1,9E0,3E0,7E0,8E0,1.5E1,4E0,5E0],"tree_param":{"num_deleted":"0","num_feature":"24","num_nodes":"11","size_leaf_vector":"1"}},{"base_weights":[-7.11543E0,-8.9469505E1,1.4815663E2,-1.1454934E2,8.074894E0,2.8057666E0,9.605418E0,-6.638904E0,-2.2417421E0,7.5833285E-1,-3.2375985E-1],"categories":[],"categories_nodes":[],"categories_segments":[],"categories_sizes":[],"default_left":[0,0,0,0,0,0,0,0,0,0,0],"id":4,"left_children":[1,3,5,7,9,-1,-1,-1,-1,-1,-1],"loss_changes":[5.891223E5,7.5295125E4,4.3041406E4,1.8504406E4,1.0262463E3,0E0,0E0,0E0,0E0,0E0,0E0],"parents":[2147483647,0,0,1,1,2,2,3,3,4,4],"right_children":[2,4,6,8,10,-1,-1,-1,-1,-1,-1],"split_conditions":[2.889E1,3.9E0,2.3E0,1.553E1,3.6E0,2.8057666E0,9.605418E0,-6.638904E0,-2.2417421E0,7.5833285E-1,-3.2375985E-1],"split_indices":[17,12,0,15,3,0,0,0,0,0,0],"split_type":[0,0,0,0,0,0,0,0,0,0,0],"sum_hessian":[4.2E1,2.8E1,1.4E1,2.2E1,6E0,6E0,8E0,1.6E1,6E0,4E0,2E0],"tree_param":{"num_deleted":"0","num_feature":"24","num_nodes":"11","size_leaf_vector":"1"}},{"base_weights":[5.4514346E0,-6.780376E1,1.8784636E2,-1.062363E2,1.3541509E1,2.6375368E0,1.0076442E1,-6.2573743E0,-2.3425775E0,-2.3574932E-1,1.1379418E0],"categories":[],"categories_nodes":[],"categories_segments":[],"categories_sizes":[],"default_left":[0,0,0,0,0,0,0,0,0,0,0],"id":5,"left_children":[1,3,5,7,9,-1,-1,-1,-1,-1,-1],"loss_changes":[6.5351806E5,1.1234422E5,4.4894688E3,1.5140156E4,2.4112263E3,0E0,0E0,0E0,0E0,0E0,0E0],"parents":[2147483647,0,0,1,1,2,2,3,3,4,4],"right_children":[2,4,6,8,10,-1,-1,-1,-1,-1,-1],"split_conditions":[1.9E0,3.9E0,2.3E0,1.414E1,1.075E0,2.6375368E0,1.0076442E1,-6.2573743E0,-2.3425775E0,-2.3574932E-1,1.1379418E0],"split_indices":[0,12,0,16,0,0,0,0,0,0,0],"split_type":[0,0,0,0,0,0,0,0,0,0,0],"sum_hessian":[4.5E1,3.3E1,1.2E1,2.2E1,1.1E1,2E0,1E1,1.5E1,7E0,4E0,7E0],"tree_param":{"num_deleted":"0","num_feature":"24","num_nodes":"11","size_leaf_vector":"1"}},{"base_weights":[1.7818354E0,-7.517886E1,1.8110149E2,-5.577614E0,-8.047256E0,2.3925729E0,9.90656E0,-1.3233988E0,9.5563936E-1],"categories":[],"categories_nodes":[],"categories_segments":[],"categories_sizes":[],"default_left":[0,0,0,0,0,0,0,0,0],"id":6,"left_children":[1,3,5,-1,7,-1,-1,-1,-1],"loss_changes":[5.517045E5,6.6515375E4,8.14575E3,0E0,7.0191216E3,0E0,0E0,0E0,0E0],"parents":[2147483647,0,0,1,1,2,2,4,4],"right_children":[2,4,6,-1,8,-1,-1,-1,-1],"split_conditions":[3.85E0,1.5849E1,6.8E0,-5.577614E0,2E0,2.3925729E0,9.90656E0,-1.3233988E0,9.5563936E-1],"split_indices":[2,17,12,0,2,0,0,0,0],"split_type":[0,0,0,0,0,0,0,0,0],"sum_hessian":[3.6E1,2.6E1,1E1,1.6E1,1E1,2E0,8E0,6E0,4E0],"tree_param":{"num_deleted":"0","num_feature":"24","num_nodes":"9","size_leaf_vector":"1"}},{"base_weights":[1.502832E1,-6.125695E1,1.6054274E2,-9.350566E1,8.469235E0,2.6580389E0,9.493983E0,-5.6362076E0,-1.821719E0,-5.9807473E-1,7.861532E-1],"categories":[],"categories_nodes":[],"categories_segments":[],"categories_sizes":[],"default_left":[0,0,0,0,0,0,0,0,0,0,0],"id":7,"left_children":[1,3,5,7,9,-1,-1,-1,-1,-1,-1],"loss_changes":[4.8594384E5,6.683515E4,2.6944031E4,1.3647844E4,2.0082345E3,0E0,0E0,0E0,0E0,0E0,0E0],"parents":[2147483647,0,0,1,1,2,2,3,3,4,4],"right_children":[2,4,6,8,10,-1,-1,-1,-1,-1,-1],"split_conditions":[3.0615E1,9E-1,2.3E0,1.4E1,1.6E0,2.6580389E0,9.493983E0,-5.6362076E0,-1.821719E0,-5.9807473E-1,7.861532E-1],"split_indices":[17,2,0,1,3,0,0,0,0,0,0],"split_type":[0,0,0,0,0,0,0,0,0,0,0],"sum_hessian":[4E1,2.7E1,1.3E1,1.8E1,9E0,4E0,9E0,1.2E1,6E0,2E0,7E0],"tree_param":{"num_deleted":"0","num_feature":"24","num_nodes":"11","size_leaf_vector":"1"}},{"base_weights":[3.2117317E1,-4.928947E1,1.526921E2,-8.708198E1,7.7263546E0,2.601645E0,8.989472E0,-4.9069595E0,-5.122177E-1,-4.7726542E-1,1.0197268E0],"categories":[],"categories_nodes":[],"categories_segments":[],"categories_sizes":[],"default_left":[0,0,0,0,0,0,0,0,0,0,0],"id":8,"left_children":[1,3,5,7,9,-1,-1,-1,-1,-1,-1],"loss_changes":[3.684657E5,5.094507E4,2.2088125E4,9.829602E3,2.8015752E3,0E0,0E0,0E0,0E0,0E0,0E0],"parents":[2147483647,0,0,1,1,2,2,3,3,4,4],"right_children":[2,4,6,8,10,-1,-1,-1,-1,-1,-1],"split_conditions":[7.8E0,1.755E0,2.3E0,1.965E1,1.27E1,2.601645E0,8.989472E0,-4.9069595E0,-5.122177E-1,-4.7726542E-1,1.0197268E0],"split_indices":[19,19,0,15,1,0,0,0,0,0,0],"split_type":[0,0,0,0,0,0,0,0,0,0,0],"sum_hessian":[3.4E1,2.1E1,1.3E1,1.2E1,9E0,4E0,9E0,1E1,2E0,4E0,5E0],"tree_param":{"num_deleted":"0","num_feature":"24","num_nodes":"11","size_leaf_vector":"1"}},{"base_weights":[-1.5131703E1,-6.8968925E1,1.1139754E2,-5.257088E0,-1.8743856E1,1.1718714E0,6.6524043E0,-2.0628655E0,2.688924E-1],"categories":[],"categories_nodes":[],"categories_segments":[],"categories_sizes":[],"default_left":[0,0,0,0,0,0,0,0,0],"id":9,"left_children":[1,3,5,-1,7,-1,-1,-1,-1],"loss_changes":[2.9463603E5,5.050003E4,1.844214E4,0E0,8.607633E3,0E0,0E0,0E0,0E0],"parents":[2147483647,0,0,1,1,2,2,4,4],"right_children":[2,4,6,-1,8,-1,-1,-1,-1],"split_conditions":[2.997E1,1.475E1,3.7518E1,-5.257088E0,3.9E-1,1.1718714E0,6.6524043E0,-2.0628655E0,2.688924E-1],"split_indices":[17,15,17,0,19,0,0,0,0],"split_type":[0,0,0,0,0,0,0,0,0],"sum_hessian":[3.9E1,2.8E1,1.1E1,1.5E1,1.3E1,3E0,8E0,6E0,7E0],"tree_param":{"num_deleted":"0","num_feature":"24","num_nodes":"9","size_leaf_vector":"1"}},{"base_weights":[4.936667E0,-7.0714195E1,1.3050069E2,-9.3323296E1,2.723338E0,2.253894E0,8.282873E0,-1.7784319E0,-5.2693205E0,5.386045E-1,-3.9622498E-1],"categories":[],"categories_nodes":[],"categories_segments":[],"categories_sizes":[],"default_left":[0,0,0,0,0,0,0,0,0,0,0],"id":10,"left_children":[1,3,5,7,9,-1,-1,-1,-1,-1,-1],"loss_changes":[4.5544162E5,5.036428E4,3.9017062E4,8.45675E3,9.434668E2,0E0,0E0,0E0,0E0,0E0,0E0],"parents":[2147483647,0,0,1,1,2,2,3,3,4,4],"right_children":[2,4,6,8,10,-1,-1,-1,-1,-1,-1],"split_conditions":[2.889E1,3.9E0,2.3E0,1.3308E2,1.847E2,2.253894E0,8.282873E0,-1.7784319E0,-5.2693205E0,5.386045E-1,-3.9622498E-1],"split_indices":[17,12,0,21,21,0,0,0,0,0,0],"split_type":[0,0,0,0,0,0,0,0,0,0,0],"sum_hessian":[4.4E1,2.8E1,1.6E1,2.1E1,7E0,6E0,1E1,5E0,1.6E1,4E0,3E0],"tree_param":{"num_deleted":"0","num_feature":"24","num_nodes":"11","size_leaf_vector":"1"}},{"base_weights":[4.8467755E0,-5.2023617E1,1.5573503E2,-4.732664E0,-3.2441137E0,2.1576355E0,8.478548E0,-1.2093862E0,6.2659943E-1],"categories":[],"categories_nodes":[],"categories_segments":[],"categories_sizes":[],"default_left":[0,0,0,0,0,0,0,0,0],"id":11,"left_children":[1,3,5,-1,7,-1,-1,-1,-1],"loss_changes":[3.7666078E5,6.587943E4,3.9509062E3,0E0,6.229013E3,0E0,0E0,0E0,0E0],"parents":[2147483647,0,0,1,1,2,2,4,4],"right_children":[2,4,6,-1,8,-1,-1,-1,-1],"split_conditions":[1.9E0,1.3E1,2.3E0,-4.732664E0,2E0,2.1576355E0,8.478548E0,-1.2093862E0,6.2659943E-1],"split_indices":[0,16,0,0,12,0,0,0,0],"split_type":[0,0,0,0,0,0,0,0,0],"sum_hessian":[4E1,3E1,1E1,1.5E1,1.5E1,2E0,8E0,6E0,9E0],"tree_param":{"num_deleted":"0","num_feature":"24","num_nodes":"9","size_leaf_vector":"1"}},{"base_weights":[-1.1565403E0,-6.256483E1,1.1359314E2,-8.063661E1,2.7112808E0,3.1600304E0,8.4015875E0,-4.3566146E0,-3.8574716E-1,-2.2879563E-1,3.3744916E-1],"categories":[],"categories_nodes":[],"categories_segments":[],"categories_sizes":[],"default_left":[0,0,0,0,0,0,0,0,0,0,0],"id":12,"left_children":[1,3,5,7,9,-1,-1,-1,-1,-1,-1],"loss_changes":[3.030982E5,3.3506586E4,1.9794453E4,9.028984E3,2.9824014E2,0E0,0E0,0E0,0E0,0E0,0E0],"parents":[2147483647,0,0,1,1,2,2,3,3,4,4],"right_children":[2,4,6,8,10,-1,-1,-1,-1,-1,-1],"split_conditions":[2.997E1,9E-1,1.45E1,1.965E1,2E0,3.1600304E0,8.4015875E0,-4.3566146E0,-3.8574716E-1,-2.2879563E-1,3.3744916E-1],"split_indices":[17,2,12,15,2,0,0,0,0,0,0],"split_type":[0,0,0,0,0,0,0,0,0,0,0],"sum_hessian":[3.9E1,2.6E1,1.3E1,2E1,6E0,9E0,4E0,1.8E1,2E0,2E0,4E0],"tree_param":{"num_deleted":"0","num_feature":"24","num_nodes":"11","size_leaf_vector":"1"}},{"base_weights":[2.7955148E0,-6.0033974E1,1.1242893E2,-4.7813296E0,-2.1354933E1,1.6316239E0,1.3354733E2,-1.914646E0,1.3651869E-2,1.8815644E0,7.2577147E0],"categories":[],"categories_nodes":[],"categories_segments":[],"categories_sizes":[],"default_left":[0,0,0,0,0,0,0,0,0,0,0],"id":13,"left_children":[1,3,5,-1,7,-1,9,-1,-1,-1,-1],"loss_changes":[3.0283022E5,3.4404594E4,1.8163719E4,0E0,5.9012695E3,0E0,2.3434375E3,0E0,0E0,0E0,0E0],"parents":[2147483647,0,0,1,1,2,2,4,4,6,6],"right_children":[2,4,6,-1,8,-1,10,-1,-1,-1,-1],"split_conditions":[2.997E1,1.235E1,2.15E0,-4.7813296E0,1.5E-1,1.6316239E0,2.078E1,-1.914646E0,1.3651869E-2,1.8815644E0,7.2577147E0],"split_indices":[17,15,0,0,2,0,15,0,0,0,0],"split_type":[0,0,0,0,0,0,0,0,0,0,0],"sum_hessian":[4E1,2.6E1,1.4E1,1.2E1,1.4E1,4E0,1E1,7E0,7E0,2E0,8E0],"tree_param":{"num_deleted":"0","num_feature":"24","num_nodes":"11","size_leaf_vector":"1"}},{"base_weights":[1.1686845E0,-5.5989418E1,1.3732744E2,-4.2869415E0,-7.5810046E0,1.8345245E0,7.4454308E0,-1.5148724E0,3.7575316E-1],"categories":[],"categories_nodes":[],"categories_segments":[],"categories_sizes":[],"default_left":[0,0,0,0,0,0,0,0,0],"id":14,"left_children":[1,3,5,-1,7,-1,-1,-1,-1],"loss_changes":[3.422866E5,4.329715E4,4.131547E3,0E0,5.2677715E3,0E0,0E0,0E0,0E0],"parents":[2147483647,0,0,1,1,2,2,4,4],"right_children":[2,4,6,-1,8,-1,-1,-1,-1],"split_conditions":[1.7E0,1.475E1,2.078E1,-4.2869415E0,9.5E-1,1.8345245E0,7.4454308E0,-1.5148724E0,3.7575316E-1],"split_indices":[0,15,15,0,0,0,0,0,0],"split_type":[0,0,0,0,0,0,0,0,0],"sum_hessian":[4E1,2.9E1,1.1E1,1.7E1,1.2E1,2E0,9E0,4E0,8E0],"tree_param":{"num_deleted":"0","num_feature":"24","num_nodes":"9","size_leaf_vector":"1"}},{"base_weights":[-7.2820755E-3,-5.57023E1,1.1930451E2,-4.3500476E0,-1.7409622E1,1.4871204E0,1.3827737E2,1.5809205E-1,-1.9417022E0,3.064265E0,8.234567E0],"categories":[],"categories_nodes":[],"categories_segments":[],"categories_sizes":[],"default_left":[0,0,0,0,0,0,0,0,0,0,0],"id":15,"left_children":[1,3,5,-1,7,-1,9,-1,-1,-1,-1],"loss_changes":[2.923523E5,3.287375E4,1.5480078E4,0E0,7.3151187E3,0E0,2.0710312E3,0E0,0E0,0E0,0E0],"parents":[2147483647,0,0,1,1,2,2,4,4,6,6],"right_children":[2,4,6,-1,8,-1,10,-1,-1,-1,-1],"split_conditions":[7.8E0,1.414E1,2.15E0,-4.3500476E0,1.5814E1,1.4871204E0,1.45E1,1.5809205E-1,-1.9417022E0,3.064265E0,8.234567E0],"split_indices":[19,16,0,0,13,0,12,0,0,0,0],"split_type":[0,0,0,0,0,0,0,0,0,0,0],"sum_hessian":[4E1,2.8E1,1.2E1,1.4E1,1.4E1,3E0,9E0,8E0,6E0,4E0,5E0],"tree_param":{"num_deleted":"0","num_feature":"24","num_nodes":"11","size_leaf_vector":"1"}},{"base_weights":[6.0422697E0,-4.7931446E1,1.170175E2,-6.978665E1,7.500781E0,1.8196325E0,1.419389E2,-4.117782E0,-1.0523531E0,-1.375388E-1,9.4763243E-1,2.099717E0,7.8181987E0],"categories":[],"categories_nodes":[],"categories_segments":[],"categories_sizes":[],"default_left":[0,0,0,0,0,0,0,0,0,0,0,0,0],"id":16,"left_children":[1,3,5,7,9,-1,11,-1,-1,-1,-1,-1,-1],"loss_changes":[2.5683175E5,3.6211047E4,1.7709734E4,9.346375E3,1.2863646E3,0E0,1.1850938E3,0E0,0E0,0E0,0E0,0E0,0E0],"parents":[2147483647,0,0,1,1,2,2,3,3,4,4,6,6],"right_children":[2,4,6,8,10,-1,12,-1,-1,-1,-1,-1,-1],"split_conditions":[4E0,9E-1,2.3E0,1.553E1,2.113E1,1.8196325E0,2.48E1,-4.117782E0,-1.0523531E0,-1.375388E-1,9.4763243E-1,2.099717E0,7.8181987E0],"split_indices":[2,2,0,15,15,0,15,0,0,0,0,0,0],"split_type":[0,0,0,0,0,0,0,0,0,0,0,0,0],"sum_hessian":[3.9E1,2.7E1,1.2E1,1.9E1,8E0,4E0,8E0,1.4E1,5E0,5E0,3E0,2E0,6E0],"tree_param":{"num_deleted":"0","num_feature":"24","num_nodes":"13","size_leaf_vector":"1"}},{"base_weights":[9.494457E0,-4.3875763E1,1.18726425E2,-6.827197E1,8.412936E0,3.2727458E0,7.661255E0,-1.4931922E0,-3.8529751E0,1.1836954E-1,8.8419724E-1],"categories":[],"categories_nodes":[],"categories_segments":[],"categories_sizes":[],"default_left":[0,0,0,0,0,0,0,0,0,0,0],"id":17,"left_children":[1,3,5,7,9,-1,-1,-1,-1,-1,-1],"loss_changes":[2.4947494E5,3.81724E4,5.5611406E3,2.094211E3,5.22776E2,0E0,0E0,0E0,0E0,0E0,0E0],"parents":[2147483647,0,0,1,1,2,2,3,3,4,4],"right_children":[2,4,6,8,10,-1,-1,-1,-1,-1,-1],"split_conditions":[1.7E0,2.9E0,1.45E1,1.3308E2,1.1E-1,3.2727458E0,7.661255E0,-1.4931922E0,-3.8529751E0,1.1836954E-1,8.8419724E-1],"split_indices":[0,12,12,21,6,0,0,0,0,0,0],"split_type":[0,0,0,0,0,0,0,0,0,0,0],"sum_hessian":[3.9E1,2.7E1,1.2E1,1.8E1,9E0,7E0,5E0,5E0,1.3E1,7E0,2E0],"tree_param":{"num_deleted":"0","num_feature":"24","num_nodes":"11","size_leaf_vector":"1"}},{"base_weights":[3.3012285E0,-4.001793E1,1.1695151E2,-5.64043E1,8.874963E0,2.3146505E0,8.015964E0,-1.1193779E0,-3.463022E0,-1.9250642E-1,6.8410844E-1],"categories":[],"categories_nodes":[],"categories_segments":[],"categories_sizes":[],"default_left":[0,0,0,0,0,0,0,0,0,0,0],"id":18,"left_children":[1,3,5,7,9,-1,-1,-1,-1,-1,-1],"loss_changes":[1.9648169E5,2.425907E4,1.8760656E4,6.474164E3,6.608214E2,0E0,0E0,0E0,0E0,0E0,0E0],"parents":[2147483647,0,0,1,1,2,2,3,3,4,4],"right_children":[2,4,6,8,10,-1,-1,-1,-1,-1,-1],"split_conditions":[4E0,9E-1,1.45E1,1.1568E2,5E-1,2.3146505E0,8.015964E0,-1.1193779E0,-3.463022E0,-1.9250642E-1,6.8410844E-1],"split_indices":[2,2,12,21,8,0,0,0,0,0,0],"split_type":[0,0,0,0,0,0,0,0,0,0,0],"sum_hessian":[3.6E1,2.7E1,9E0,2E1,7E0,5E0,4E0,7E0,1.3E1,2E0,5E0],"tree_param":{"num_deleted":"0","num_feature":"24","num_nodes":"11","size_leaf_vector":"1"}},{"base_weights":[3.2761655E0,-4.2534153E1,9.773666E1,-5.8095905E1,1.2776924E1,2.791003E0,6.7467723E0,-3.2854824E0,-2.151294E-1,1.5286027E-1,7.4572146E-1],"categories":[],"categories_nodes":[],"categories_segments":[],"categories_sizes":[],"default_left":[0,0,0,0,0,0,0,0,0,0,0],"id":19,"left_children":[1,3,5,7,9,-1,-1,-1,-1,-1,-1],"loss_changes":[1.8575977E5,2.6468617E4,6.6698594E3,8.819625E3,6.602881E1,0E0,0E0,0E0,0E0,0E0,0E0],"parents":[2147483647,0,0,1,1,2,2,3,3,4,4],"right_children":[2,4,6,8,10,-1,-1,-1,-1,-1,-1],"split_conditions":[3.0615E1,1.755E0,3E0,1.965E1,1.63E1,2.791003E0,6.7467723E0,-3.2854824E0,-2.151294E-1,1.5286027E-1,7.4572146E-1],"split_indices":[17,19,0,15,15,0,0,0,0,0,0],"split_type":[0,0,0,0,0,0,0,0,0,0,0],"sum_hessian":[3.9E1,2.7E1,1.2E1,2.1E1,6E0,8E0,4E0,1.8E1,3E0,2E0,4E0],"tree_param":{"num_deleted":"0","num_feature":"24","num_nodes":"11","size_leaf_vector":"1"}},{"base_weights":[5.4204345E0,-3.6665184E1,1.114577E2,-5.4971813E1,9.897497E0,1.4501008E0,1.21131096E2,-3.3149536E0,-1.0652179E0,-2.7023202E-1,7.2772795E-1,6.866474E0,2.3330622E0],"categories":[],"categories_nodes":[],"categories_segments":[],"categories_sizes":[],"default_left":[0,0,0,0,0,0,0,0,0,0,0,0,0],"id":20,"left_children":[1,3,5,7,9,-1,11,-1,-1,-1,-1,-1,-1],"loss_changes":[2.0456697E5,2.924009E4,3.2679844E3,6.2839297E3,9.457921E2,0E0,3.6128125E2,0E0,0E0,0E0,0E0,0E0,0E0],"parents":[2147483647,0,0,1,1,2,2,3,3,4,4,6,6],"right_children":[2,4,6,8,10,-1,12,-1,-1,-1,-1,-1,-1],"split_conditions":[1.9E0,3.9E0,2.078E1,1.553E1,1.075E0,1.4501008E0,1.5E1,-3.3149536E0,-1.0652179E0,-2.7023202E-1,7.2772795E-1,6.866474E0,2.3330622E0],"split_indices":[0,12,15,15,0,0,1,0,0,0,0,0,0],"split_type":[0,0,0,0,0,0,0,0,0,0,0,0,0],"sum_hessian":[4.2E1,3.1E1,1.1E1,2.2E1,9E0,2E0,9E0,1.5E1,7E0,2E0,7E0,6E0,3E0],"tree_param":{"num_deleted":"0","num_feature":"24","num_nodes":"13","size_leaf_vector":"1"}},{"base_weights":[7.445837E0,-3.498998E1,9.1358025E1,-5.1669434E1,8.65282E0,5.6816974E0,1.6680777E0,-3.0876522E0,-9.261179E-1,1.21883586E-1,8.3158535E-1],"categories":[],"categories_nodes":[],"categories_segments":[],"categories_sizes":[],"default_left":[0,0,0,0,0,0,0,0,0,0,0],"id":21,"left_children":[1,3,5,7,9,-1,-1,-1,-1,-1,-1],"loss_changes":[1.5953934E5,2.2753832E4,1.1723359E4,5.0255625E3,4.0527966E2,0E0,0E0,0E0,0E0,0E0,0E0],"parents":[2147483647,0,0,1,1,2,2,3,3,4,4],"right_children":[2,4,6,8,10,-1,-1,-1,-1,-1,-1],"split_conditions":[3.0615E1,9E-1,8.2E0,1.633E1,1.1E-1,5.6816974E0,1.6680777E0,-3.0876522E0,-9.261179E-1,1.21883586E-1,8.3158535E-1],"split_indices":[17,2,20,16,6,0,0,0,0,0,0],"split_type":[0,0,0,0,0,0,0,0,0,0,0],"sum_hessian":[4.1E1,2.8E1,1.3E1,2E1,8E0,8E0,5E0,1.4E1,6E0,6E0,2E0],"tree_param":{"num_deleted":"0","num_feature":"24","num_nodes":"11","size_leaf_vector":"1"}},{"base_weights":[-6.458885E-1,-3.636949E1,1.001017E2,-5.4552963E1,6.5646305E0,1.2718064E0,1.1098602E2,-3.1067638E0,-1.0240394E0,-6.637181E-2,6.8335825E-1,6.295875E0,1.4618965E0],"categories":[],"categories_nodes":[],"categories_segments":[],"categories_sizes":[],"default_left":[0,0,0,0,0,0,0,0,0,0,0,0,0],"id":22,"left_children":[1,3,5,7,9,-1,11,-1,-1,-1,-1,-1,-1],"loss_changes":[1.5121211E5,2.494166E4,3.225211E3,3.0971445E3,6.590449E2,0E0,3.5448672E3,0E0,0E0,0E0,0E0,0E0,0E0],"parents":[2147483647,0,0,1,1,2,2,3,3,4,4,6,6],"right_children":[2,4,6,8,10,-1,12,-1,-1,-1,-1,-1,-1],"split_conditions":[1.7E0,3.9E0,2.078E1,1.553E1,2.015E1,1.2718064E0,8.2E0,-3.1067638E0,-1.0240394E0,-6.637181E-2,6.8335825E-1,6.295875E0,1.4618965E0],"split_indices":[0,12,15,15,15,0,20,0,0,0,0,0,0],"split_type":[0,0,0,0,0,0,0,0,0,0,0,0,0],"sum_hessian":[3.8E1,2.9E1,9E0,2E1,9E0,2E0,7E0,1.5E1,5E0,5E0,4E0,5E0,2E0],"tree_param":{"num_deleted":"0","num_feature":"24","num_nodes":"13","size_leaf_vector":"1"}},{"base_weights":[5.5372257E0,-2.7693995E1,9.881115E1,-5.470496E1,2.3663042E0,2.126471E0,6.3394847E0,-3.0168498E0,-1.1622617E0,-9.886417E-1,4.7319213E-1],"categories":[],"categories_nodes":[],"categories_segments":[],"categories_sizes":[],"default_left":[0,0,0,0,0,0,0,0,0,0,0],"id":23,"left_children":[1,3,5,7,9,-1,-1,-1,-1,-1,-1],"loss_changes":[1.4189119E5,2.789163E4,8.026922E3,3.4239453E2,3.1975005E3,0E0,0E0,0E0,0E0,0E0,0E0],"parents":[2147483647,0,0,1,1,2,2,3,3,4,4],"right_children":[2,4,6,8,10,-1,-1,-1,-1,-1,-1],"split_conditions":[1.9E0,1E0,1.45E1,1.553E1,1.259E1,2.126471E0,6.3394847E0,-3.0168498E0,-1.1622617E0,-9.886417E-1,4.7319213E-1],"split_indices":[0,3,12,15,16,0,0,0,0,0,0],"split_type":[0,0,0,0,0,0,0,0,0,0,0],"sum_hessian":[4.2E1,3.2E1,1E1,1.6E1,1.6E1,5E0,5E0,1.2E1,4E0,3E0,1.3E1],"tree_param":{"num_deleted":"0","num_feature":"24","num_nodes":"11","size_leaf_vector":"1"}},{"base_weights":[-6.593888E0,-4.588928E1,4.4321766E1,-2.8083751E0,-3.138454E-1,1.1499469E1,6.822971E1,1.6427408E-1,7.898483E-1,9.3150634E-1,3.7954788E0],"categories":[],"categories_nodes":[],"categories_segments":[],"categories_sizes":[],"default_left":[0,0,0,0,0,0,0,0,0,0,0],"id":24,"left_children":[1,3,5,-1,-1,7,9,-1,-1,-1,-1],"loss_changes":[8.209785E4,8.627992E3,1.251577E4,0E0,0E0,2.3965356E2,9.335039E2,0E0,0E0,0E0,0E0],"parents":[2147483647,0,0,1,1,2,2,5,5,6,6],"right_children":[2,4,6,-1,-1,8,10,-1,-1,-1,-1],"split_conditions":[1.25E0,1.553E1,1.9E0,-2.8083751E0,-3.138454E-1,2.997E1,5E0,1.6427408E-1,7.898483E-1,9.3150634E-1,3.7954788E0],"split_indices":[0,15,0,0,0,17,1,0,0,0,0],"split_type":[0,0,0,0,0,0,0,0,0,0,0],"sum_hessian":[3.7E1,2.1E1,1.6E1,1.6E1,5E0,8E0,8E0,4E0,4E0,2E0,6E0],"tree_param":{"num_deleted":"0","num_feature":"24","num_nodes":"11","size_leaf_vector":"1"}},{"base_weights":[5.410391E0,-2.962637E1,9.3555954E1,-4.5671425E1,6.022715E0,1.876713E0,1.10057976E2,-2.593815E0,-1.2416718E-1,5.2081317E-1,-2.0973785E-1,1.2246376E0,6.3717914E0],"categories":[],"categories_nodes":[],"categories_segments":[],"categories_sizes":[],"default_left":[0,0,0,0,0,0,0,0,0,0,0,0,0],"id":25,"left_children":[1,3,5,7,9,-1,11,-1,-1,-1,-1,-1,-1],"loss_changes":[1.4146214E5,1.944568E4,3.6824453E3,5.878629E3,6.291896E2,0E0,7.0639844E3,0E0,0E0,0E0,0E0,0E0,0E0],"parents":[2147483647,0,0,1,1,2,2,3,3,4,4,6,6],"right_children":[2,4,6,8,10,-1,12,-1,-1,-1,-1,-1,-1],"split_conditions":[1.9E0,9E-1,2.48E1,1.965E1,1.847E2,1.876713E0,8.1E1,-2.593815E0,-1.2416718E-1,5.2081317E-1,-2.0973785E-1,1.2246376E0,6.3717914E0],"split_indices":[0,2,15,15,21,0,21,0,0,0,0,0,0],"split_type":[0,0,0,0,0,0,0,0,0,0,0,0,0],"sum_hessian":[4.2E1,3.1E1,1.1E1,2.1E1,1E1,4E0,7E0,1.8E1,3E0,7E0,3E0,2E0,5E0],"tree_param":{"num_deleted":"0","num_feature":"24","num_nodes":"13","size_leaf_vector":"1"}},{"base_weights":[5.123708E0,-3.2416367E1,6.7863365E1,-4.4314312E1,1.1716003E0,3.56655E1,5.4777327E0,-2.457205E0,-5.033658E-1,-3.9965937E-1,3.0726537E-1,2.8719217E-1,2.0225532E0],"categories":[],"categories_nodes":[],"categories_segments":[],"categories_sizes":[],"default_left":[0,0,0,0,0,0,0,0,0,0,0,0,0],"id":26,"left_children":[1,3,5,7,9,11,-1,-1,-1,-1,-1,-1,-1],"loss_changes":[1.009828E5,1.0915359E4,1.3590672E4,2.2890117E3,5.075639E2,1.2305166E3,0E0,0E0,0E0,0E0,0E0,0E0,0E0],"parents":[2147483647,0,0,1,1,2,2,3,3,4,4,5,5],"right_children":[2,4,6,8,10,12,-1,-1,-1,-1,-1,-1,-1],"split_conditions":[1.45E0,9E-1,3E0,1.633E1,9E-1,3.85E0,5.4777327E0,-2.457205E0,-5.033658E-1,-3.9965937E-1,3.0726537E-1,2.8719217E-1,2.0225532E0],"split_indices":[0,2,0,16,0,2,0,0,0,0,0,0,0],"split_type":[0,0,0,0,0,0,0,0,0,0,0,0,0],"sum_hessian":[3.9E1,2.5E1,1.4E1,1.8E1,7E0,1E1,4E0,1.5E1,3E0,2E0,5E0,2E0,8E0],"tree_param":{"num_deleted":"0","num_feature":"24","num_nodes":"13","size_leaf_vector":"1"}},{"base_weights":[-1.1758149E0,-2.8579512E1,6.748773E1,-4.282226E1,8.420438E0,7.9197174E1,9.6578187E-1,-7.8426266E-1,-2.5503366E0,-2.0144387E-1,6.301243E-1,1.0302804E0,4.4989443E0],"categories":[],"categories_nodes":[],"categories_segments":[],"categories_sizes":[],"default_left":[0,0,0,0,0,0,0,0,0,0,0,0,0],"id":27,"left_children":[1,3,5,7,9,11,-1,-1,-1,-1,-1,-1,-1],"loss_changes":[7.910348E4,1.6547797E4,3.6600781E3,3.252793E3,6.264708E2,1.9220234E3,0E0,0E0,0E0,0E0,0E0,0E0,0E0],"parents":[2147483647,0,0,1,1,2,2,3,3,4,4,5,5],"right_children":[2,4,6,8,10,12,-1,-1,-1,-1,-1,-1,-1],"split_conditions":[3.0615E1,9E-1,8.2E0,1.1568E2,1.468E1,2.078E1,9.6578187E-1,-7.8426266E-1,-2.5503366E0,-2.0144387E-1,6.301243E-1,1.0302804E0,4.4989443E0],"split_indices":[17,2,20,21,16,15,0,0,0,0,0,0,0],"split_type":[0,0,0,0,0,0,0,0,0,0,0,0,0],"sum_hessian":[3.8E1,2.8E1,1E1,2E1,8E0,7E0,3E0,6E0,1.4E1,2E0,6E0,2E0,5E0],"tree_param":{"num_deleted":"0","num_feature":"24","num_nodes":"13","size_leaf_vector":"1"}},{"base_weights":[-2.4316566E0,-3.2221806E1,6.435893E1,-9.700734E0,-4.9276337E1,2.3984932E1,5.1691813E0,-1.0247555E0,9.972145E-2,-6.7890626E-1,-2.6200318E0,3.57251E-1,1.3341736E0],"categories":[],"categories_nodes":[],"categories_segments":[],"categories_sizes":[],"default_left":[0,0,0,0,0,0,0,0,0,0,0,0,0],"id":28,"left_children":[1,3,5,7,9,11,-1,-1,-1,-1,-1,-1,-1],"loss_changes":[8.371953E4,1.015298E4,1.5459598E4,1.9846323E3,3.2851172E2,1.0766602E1,0E0,0E0,0E0,0E0,0E0,0E0,0E0],"parents":[2147483647,0,0,1,1,2,2,3,3,4,4,5,5],"right_children":[2,4,6,8,10,12,-1,-1,-1,-1,-1,-1,-1],"split_conditions":[1.45E0,1.8911E2,1.45E1,9E-1,6.2E-1,3.85E0,5.1691813E0,-1.0247555E0,9.972145E-2,-6.7890626E-1,-2.6200318E0,3.57251E-1,1.3341736E0],"split_indices":[0,21,12,0,0,2,0,0,0,0,0,0,0],"split_type":[0,0,0,0,0,0,0,0,0,0,0,0,0],"sum_hessian":[3.8E1,2.7E1,1.1E1,1.3E1,1.4E1,7E0,4E0,6E0,7E0,2E0,1.2E1,2E0,5E0],"tree_param":{"num_deleted":"0","num_feature":"24","num_nodes":"13","size_leaf_vector":"1"}},{"base_weights":[3.5720549E0,-2.6113531E1,7.384967E1,-3.836206E1,3.085993E0,9.501936E1,1.4242203E0,-2.1938522E0,-8.8395405E-1,-3.6940765E-1,3.5554743E-1,1.4067688E0,5.392612E0],"categories":[],"categories_nodes":[],"categories_segments":[],"categories_sizes":[],"default_left":[0,0,0,0,0,0,0,0,0,0,0,0,0],"id":29,"left_children":[1,3,5,7,9,11,-1,-1,-1,-1,-1,-1,-1],"loss_changes":[9.150258E4,1.1341598E4,7.0099062E3,9.272676E2,5.686726E2,7.2958594E2,0E0,0E0,0E0,0E0,0E0,0E0,0E0],"parents":[2147483647,0,0,1,1,2,2,3,3,4,4,5,5],"right_children":[2,4,6,8,10,12,-1,-1,-1,-1,-1,-1,-1],"split_conditions":[2.245E1,3.9E0,8.2E0,1.553E1,9E-1,2.48E1,1.4242203E0,-2.1938522E0,-8.8395405E-1,-3.6940765E-1,3.5554743E-1,1.4067688E0,5.392612E0],"split_indices":[15,12,20,15,0,15,0,0,0,0,0,0,0],"split_type":[0,0,0,0,0,0,0,0,0,0,0,0,0],"sum_hessian":[4E1,2.9E1,1.1E1,2E1,9E0,6E0,5E0,1.4E1,6E0,2E0,7E0,2E0,4E0],"tree_param":{"num_deleted":"0","num_feature":"24","num_nodes":"13","size_leaf_vector":"1"}},{"base_weights":[5.9446244E0,-2.7403631E1,7.946079E1,-4.1897427E1,3.8857477E0,1.9050449E0,5.7465186E0,-2.4137228E0,-1.0100384E0,-1.7239685E-1,3.1686097E-1],"categories":[],"categories_nodes":[],"categories_segments":[],"categories_sizes":[],"default_left":[0,0,0,0,0,0,0,0,0,0,0],"id":30,"left_children":[1,3,5,7,9,-1,-1,-1,-1,-1,-1],"loss_changes":[1.0244651E5,1.3496164E4,1.02368125E4,7.8260547E2,2.4290683E2,0E0,0E0,0E0,0E0,0E0,0E0],"parents":[2147483647,0,0,1,1,2,2,3,3,4,4],"right_children":[2,4,6,8,10,-1,-1,-1,-1,-1,-1],"split_conditions":[1.9E0,1.7047E1,1.45E1,7.419E0,1.468E1,1.9050449E0,5.7465186E0,-2.4137228E0,-1.0100384E0,-1.7239685E-1,3.1686097E-1],"split_indices":[0,17,12,13,16,0,0,0,0,0,0],"split_type":[0,0,0,0,0,0,0,0,0,0,0],"sum_hessian":[3.8E1,2.7E1,1.1E1,1.8E1,9E0,7E0,4E0,1.2E1,6E0,2E0,7E0],"tree_param":{"num_deleted":"0","num_feature":"24","num_nodes":"11","size_leaf_vector":"1"}},{"base_weights":[4.5545726E0,-2.251836E1,5.9931355E1,-3.656667E1,5.7775726E0,3.0331205E1,4.7068925E0,-5.200843E-1,-2.1705883E0,-1.68087E-1,4.163892E-1,1.6590006E0,4.3153915E-1],"categories":[],"categories_nodes":[],"categories_segments":[],"categories_sizes":[],"default_left":[0,0,0,0,0,0,0,0,0,0,0,0,0],"id":31,"left_children":[1,3,5,7,9,11,-1,-1,-1,-1,-1,-1,-1],"loss_changes":[6.868314E4,1.2760737E4,9.414895E3,2.831121E3,3.381608E2,8.637988E1,0E0,0E0,0E0,0E0,0E0,0E0,0E0],"parents":[2147483647,0,0,1,1,2,2,3,3,4,4,5,5],"right_children":[2,4,6,8,10,12,-1,-1,-1,-1,-1,-1,-1],"split_conditions":[3.0615E1,9E-1,3E0,1.1568E2,1.6E0,1.8E1,4.7068925E0,-5.200843E-1,-2.1705883E0,-1.68087E-1,4.163892E-1,1.6590006E0,4.3153915E-1],"split_indices":[17,2,0,21,3,1,0,0,0,0,0,0,0],"split_type":[0,0,0,0,0,0,0,0,0,0,0,0,0],"sum_hessian":[4.2E1,2.9E1,1.3E1,1.9E1,1E1,9E0,4E0,5E0,1.4E1,2E0,8E0,7E0,2E0],"tree_param":{"num_deleted":"0","num_feature":"24","num_nodes":"13","size_leaf_vector":"1"}},{"base_weights":[7.6908E0,-2.8640116E1,6.238034E1,-3.7767567E1,6.8536944E0,3.5028416E1,5.69568E0,-2.0632794E0,-1.0715866E-1,-6.762581E-2,5.388593E-1,2.0420442E0,6.790751E-1],"categories":[],"categories_nodes":[],"categories_segments":[],"categories_sizes":[],"default_left":[0,0,0,0,0,0,0,0,0,0,0,0,0],"id":32,"left_children":[1,3,5,7,9,11,-1,-1,-1,-1,-1,-1,-1],"loss_changes":[8.505379E4,8.956322E3,1.590718E4,2.4183281E3,2.5924393E2,6.086621E2,0E0,0E0,0E0,0E0,0E0,0E0,0E0],"parents":[2147483647,0,0,1,1,2,2,3,3,4,4,5,5],"right_children":[2,4,6,8,10,12,-1,-1,-1,-1,-1,-1,-1],"split_conditions":[1.45E0,2.9E0,1.475E1,1.965E1,3.5E-1,9.68E0,5.69568E0,-2.0632794E0,-1.0715866E-1,-6.762581E-2,5.388593E-1,2.0420442E0,6.790751E-1],"split_indices":[0,12,12,15,7,20,0,0,0,0,0,0,0],"split_type":[0,0,0,0,0,0,0,0,0,0,0,0,0],"sum_hessian":[3.9E1,2.4E1,1.5E1,1.9E1,5E0,1.2E1,3E0,1.7E1,2E0,2E0,3E0,8E0,4E0],"tree_param":{"num_deleted":"0","num_feature":"24","num_nodes":"13","size_leaf_vector":"1"}},{"base_weights":[5.775389E0,-2.1052088E1,7.09622E1,-2.9985195E1,8.384786E0,1.3478191E0,8.447447E1,-1.919376E0,-8.142485E-1,6.9730896E-1,4.360148E-2,5.0338836E0,6.878319E-1],"categories":[],"categories_nodes":[],"categories_segments":[],"categories_sizes":[],"default_left":[0,0,0,0,0,0,0,0,0,0,0,0,0],"id":33,"left_children":[1,3,5,7,9,-1,11,-1,-1,-1,-1,-1,-1],"loss_changes":[7.821105E4,8.928446E3,3.1200742E3,1.6002305E3,3.4430054E2,0E0,7.4855E3,0E0,0E0,0E0,0E0,0E0,0E0],"parents":[2147483647,0,0,1,1,2,2,3,3,4,4,6,6],"right_children":[2,4,6,8,10,-1,12,-1,-1,-1,-1,-1,-1],"split_conditions":[1.9E0,1.8135E1,2.48E1,1.235E1,1E1,1.3478191E0,1.5E1,-1.919376E0,-8.142485E-1,6.9730896E-1,4.360148E-2,5.0338836E0,6.878319E-1],"split_indices":[0,22,15,15,13,0,1,0,0,0,0,0,0],"split_type":[0,0,0,0,0,0,0,0,0,0,0,0,0],"sum_hessian":[4.1E1,3E1,1.1E1,2.3E1,7E0,4E0,7E0,1.2E1,1.1E1,3E0,4E0,5E0,2E0],"tree_param":{"num_deleted":"0","num_feature":"24","num_nodes":"13","size_leaf_vector":"1"}},{"base_weights":[8.22814E0,-1.925612E1,5.297149E1,-1.6800655E0,-8.065115E-1,2.909322E1,5.198256E0,-3.9248657E-1,3.700943E-1,1.5733695E0,3.9463195E-1],"categories":[],"categories_nodes":[],"categories_segments":[],"categories_sizes":[],"default_left":[0,0,0,0,0,0,0,0,0,0,0],"id":34,"left_children":[1,3,5,-1,7,9,-1,-1,-1,-1,-1],"loss_changes":[4.8786945E4,6.545176E3,1.2148703E4,0E0,8.680057E2,1.379375E2,0E0,0E0,0E0,0E0,0E0],"parents":[2147483647,0,0,1,1,2,2,4,4,5,5],"right_children":[2,4,6,-1,8,10,-1,-1,-1,-1,-1],"split_conditions":[6.8E-1,1E0,4E0,-1.6800655E0,1.95E1,1E1,5.198256E0,-3.9248657E-1,3.700943E-1,1.5733695E0,3.9463195E-1],"split_indices":[18,3,3,0,15,13,0,0,0,0,0],"split_type":[0,0,0,0,0,0,0,0,0,0,0],"sum_hessian":[3.6E1,2.3E1,1.3E1,1.2E1,1.1E1,1.1E1,2E0,6E0,5E0,9E0,2E0],"tree_param":{"num_deleted":"0","num_feature":"24","num_nodes":"11","size_leaf_vector":"1"}},{"base_weights":[4.813498E0,-1.7685661E1,4.314815E0,-3.359464E1,8.668614E0,-5.297834E-1,-2.067407E0,-6.352234E-2,7.264096E-1],"categories":[],"categories_nodes":[],"categories_segments":[],"categories_sizes":[],"default_left":[0,0,0,0,0,0,0,0,0],"id":35,"left_children":[1,3,-1,5,7,-1,-1,-1,-1],"loss_changes":[7.641851E4,1.4430796E4,0E0,2.84258E3,8.58885E2,0E0,0E0,0E0,0E0],"parents":[2147483647,0,0,1,1,3,3,4,4],"right_children":[2,4,-1,6,8,-1,-1,-1,-1],"split_conditions":[2.15E0,3.9E0,4.314815E0,1.1568E2,3.5E-1,-5.297834E-1,-2.067407E0,-6.352234E-2,7.264096E-1],"split_indices":[0,12,0,21,8,0,0,0,0],"split_type":[0,0,0,0,0,0,0,0,0],"sum_hessian":[3.8E1,3.1E1,7E0,1.9E1,1.2E1,6E0,1.3E1,5E0,7E0],"tree_param":{"num_deleted":"0","num_feature":"24","num_nodes":"9","size_leaf_vector":"1"}},{"base_weights":[2.768285E0,-1.8537317E1,5.0286175E1,-1.8723421E0,-8.24913E-1,1.0285357E0,2.9969366E0,-5.931549E-1,3.1519583E-1],"categories":[],"categories_nodes":[],"categories_segments":[],"categories_sizes":[],"default_left":[0,0,0,0,0,0,0,0,0],"id":36,"left_children":[1,3,5,-1,7,-1,-1,-1,-1],"loss_changes":[3.9338914E4,8.96228E3,9.357422E2,0E0,1.411377E3,0E0,0E0,0E0,0E0],"parents":[2147483647,0,0,1,1,2,2,4,4],"right_children":[2,4,6,-1,8,-1,-1,-1,-1],"split_conditions":[2.113E1,1.235E1,2.3E0,-1.8723421E0,9E-1,1.0285357E0,2.9969366E0,-5.931549E-1,3.1519583E-1],"split_indices":[15,15,0,0,0,0,0,0,0],"split_type":[0,0,0,0,0,0,0,0,0],"sum_hessian":[3.5E1,2.5E1,1E1,1.1E1,1.4E1,4E0,6E0,5E0,9E0],"tree_param":{"num_deleted":"0","num_feature":"24","num_nodes":"9","size_leaf_vector":"1"}},{"base_weights":[3.8172822E0,-1.712651E1,6.256348E1,-3.1010178E1,2.337637E0,1.3710423E0,5.034742E0,-5.175513E-1,-1.6704365E0,-3.3308056E-1,5.436483E-1],"categories":[],"categories_nodes":[],"categories_segments":[],"categories_sizes":[],"default_left":[0,0,0,0,0,0,0,0,0,0,0],"id":37,"left_children":[1,3,5,7,9,-1,-1,-1,-1,-1,-1],"loss_changes":[5.6301906E4,9.347265E3,1.0494105E4,2.775332E2,1.3759532E3,0E0,0E0,0E0,0E0,0E0,0E0],"parents":[2147483647,0,0,1,1,2,2,3,3,4,4],"right_children":[2,4,6,8,10,-1,-1,-1,-1,-1,-1],"split_conditions":[2.245E1,1.7047E1,1.475E1,9.63E0,5.15E0,1.3710423E0,5.034742E0,-5.175513E-1,-1.6704365E0,-3.3308056E-1,5.436483E-1],"split_indices":[15,17,12,17,12,0,0,0,0,0,0],"split_type":[0,0,0,0,0,0,0,0,0,0,0],"sum_hessian":[4.2E1,3.2E1,1E1,1.8E1,1.4E1,7E0,3E0,3E0,1.5E1,7E0,7E0],"tree_param":{"num_deleted":"0","num_feature":"24","num_nodes":"11","size_leaf_vector":"1"}},{"base_weights":[6.0933156E0,-1.955367E1,5.489838E1,-2.6139027E1,4.205147E0,2.788381E1,4.8837E0,-4.587805E-1,-1.5508611E0,-1.3954698E-1,3.775411E-1,1.6170037E0,4.3045044E-1],"categories":[],"categories_nodes":[],"categories_segments":[],"categories_sizes":[],"default_left":[0,0,0,0,0,0,0,0,0,0,0,0,0],"id":38,"left_children":[1,3,5,7,9,11,-1,-1,-1,-1,-1,-1,-1],"loss_changes":[5.473612E4,4.7681523E3,1.1823648E4,1.3139697E3,2.3178078E2,4.53417E2,0E0,0E0,0E0,0E0,0E0,0E0,0E0],"parents":[2147483647,0,0,1,1,2,2,3,3,4,4,5,5],"right_children":[2,4,6,8,10,12,-1,-1,-1,-1,-1,-1,-1],"split_conditions":[2.195E1,3.9E0,1.475E1,1.1568E2,1.075E0,5.5E-1,4.8837E0,-4.587805E-1,-1.5508611E0,-1.3954698E-1,3.775411E-1,1.6170037E0,4.3045044E-1],"split_indices":[15,12,12,21,0,8,0,0,0,0,0,0,0],"split_type":[0,0,0,0,0,0,0,0,0,0,0,0,0],"sum_hessian":[4E1,2.7E1,1.3E1,2.1E1,6E0,1E1,3E0,6E0,1.5E1,2E0,4E0,7E0,3E0],"tree_param":{"num_deleted":"0","num_feature":"24","num_nodes":"13","size_leaf_vector":"1"}},{"base_weights":[8.558471E0,-1.3270003E1,5.5706024E1,-2.5286617E1,7.22017E0,2.7787775E1,4.737188E0,-1.4800231E0,-2.0244751E-2,8.630142E-2,7.610193E-1,2.8975067E-1,1.5665859E0],"categories":[],"categories_nodes":[],"categories_segments":[],"categories_sizes":[],"default_left":[0,0,0,0,0,0,0,0,0,0,0,0,0],"id":39,"left_children":[1,3,5,7,9,11,-1,-1,-1,-1,-1,-1,-1],"loss_changes":[4.5753496E4,8.0070776E3,9.931414E3,2.1077441E3,5.1039124E2,4.756543E2,0E0,0E0,0E0,0E0,0E0,0E0,0E0],"parents":[2147483647,0,0,1,1,2,2,3,3,4,4,5,5],"right_children":[2,4,6,8,10,12,-1,-1,-1,-1,-1,-1,-1],"split_conditions":[1.9E0,9E-1,1.475E1,1.965E1,5E-1,5E0,4.737188E0,-1.4800231E0,-2.0244751E-2,8.630142E-2,7.610193E-1,2.8975067E-1,1.5665859E0],"split_indices":[0,2,12,15,7,1,0,0,0,0,0,0,0],"split_type":[0,0,0,0,0,0,0,0,0,0,0,0,0],"sum_hessian":[4.1E1,2.9E1,1.2E1,1.8E1,1.1E1,9E0,3E0,1.5E1,3E0,8E0,3E0,2E0,7E0],"tree_param":{"num_deleted":"0","num_feature":"24","num_nodes":"13","size_leaf_vector":"1"}},{"base_weights":[8.592303E0,-1.1895475E1,6.1088757E1,-2.5064177E1,8.129724E0,2.6496132E1,4.5950727E0,-4.5249026E-2,-1.487101E0,-1.4546858E-2,6.763935E-1,1.5103592E0,3.778244E-1],"categories":[],"categories_nodes":[],"categories_segments":[],"categories_sizes":[],"default_left":[0,0,0,0,0,0,0,0,0,0,0,0,0],"id":40,"left_children":[1,3,5,7,9,11,-1,-1,-1,-1,-1,-1,-1],"loss_changes":[4.2348312E4,8.063467E3,6.795543E3,1.9650762E3,6.054175E2,8.688574E1,0E0,0E0,0E0,0E0,0E0,0E0,0E0],"parents":[2147483647,0,0,1,1,2,2,3,3,4,4,5,5],"right_children":[2,4,6,8,10,12,-1,-1,-1,-1,-1,-1,-1],"split_conditions":[2.15E0,1.755E0,1.475E1,1.008E2,1.95E1,1.55E0,4.5950727E0,-4.5249026E-2,-1.487101E0,-1.4546858E-2,6.763935E-1,1.5103592E0,3.778244E-1],"split_indices":[0,19,12,21,15,5,0,0,0,0,0,0,0],"split_type":[0,0,0,0,0,0,0,0,0,0,0,0,0],"sum_hessian":[3.6E1,2.7E1,9E0,1.6E1,1.1E1,6E0,3E0,3E0,1.3E1,5E0,6E0,4E0,2E0],"tree_param":{"num_deleted":"0","num_feature":"24","num_nodes":"13","size_leaf_vector":"1"}},{"base_weights":[-1.0286872E0,-1.5306843E1,3.598633E1,-2.5931932E1,-5.840266E0,3.9283142E1,4.8130646E-1,-1.4183608E0,-2.767559E-1,-6.595935E-1,9.297111E-2,2.4296825E0,8.397461E-1],"categories":[],"categories_nodes":[],"categories_segments":[],"categories_sizes":[],"default_left":[0,0,0,0,0,0,0,0,0,0,0,0,0],"id":41,"left_children":[1,3,5,7,9,11,-1,-1,-1,-1,-1,-1,-1],"loss_changes":[2.2760086E4,2.799296E3,2.621123E2,3.6442383E2,1.1302207E3,4.2881836E2,0E0,0E0,0E0,0E0,0E0,0E0,0E0],"parents":[2147483647,0,0,1,1,2,2,3,3,4,4,5,5],"right_children":[2,4,6,8,10,12,-1,-1,-1,-1,-1,-1,-1],"split_conditions":[2.245E1,1.235E1,5.5E-1,3E-1,1.8E-1,8.2E0,4.8130646E-1,-1.4183608E0,-2.767559E-1,-6.595935E-1,9.297111E-2,2.4296825E0,8.397461E-1],"split_indices":[15,15,8,8,18,20,0,0,0,0,0,0,0],"split_type":[0,0,0,0,0,0,0,0,0,0,0,0,0],"sum_hessian":[3.9E1,2.9E1,1E1,1.2E1,1.7E1,8E0,2E0,1E1,2E0,8E0,9E0,4E0,4E0],"tree_param":{"num_deleted":"0","num_feature":"24","num_nodes":"13","size_leaf_vector":"1"}},{"base_weights":[9.013069E0,-1.1463914E1,5.491948E1,-1.3621505E0,5.127226E-1,4.1431165E0,1.2015517E0,-2.9168618E-1,3.7206346E-1],"categories":[],"categories_nodes":[],"categories_segments":[],"categories_sizes":[],"default_left":[0,0,0,0,0,0,0,0,0],"id":42,"left_children":[1,3,5,-1,7,-1,-1,-1,-1],"loss_changes":[3.982193E4,5.710717E3,7.184461E3,0E0,9.230857E2,0E0,0E0,0E0,0E0],"parents":[2147483647,0,0,1,1,2,2,4,4],"right_children":[2,4,6,-1,8,-1,-1,-1,-1],"split_conditions":[2.245E1,1.235E1,4.882E0,-1.3621505E0,1.1E0,4.1431165E0,1.2015517E0,-2.9168618E-1,3.7206346E-1],"split_indices":[15,15,13,0,0,0,0,0,0],"split_type":[0,0,0,0,0,0,0,0,0],"sum_hessian":[3.9E1,2.8E1,1.1E1,1.1E1,1.7E1,4E0,7E0,9E0,8E0],"tree_param":{"num_deleted":"0","num_feature":"24","num_nodes":"9","size_leaf_vector":"1"}},{"base_weights":[-5.6102353E-1,-9.597175E0,3.5022683E0,-2.3917683E1,9.739829E0,-2.93878E-1,-1.4781948E0,1.6331236E-1,9.45398E-1],"categories":[],"categories_nodes":[],"categories_segments":[],"categories_sizes":[],"default_left":[0,0,0,0,0,0,0,0,0],"id":43,"left_children":[1,3,-1,5,7,-1,-1,-1,-1],"loss_changes":[2.8110668E4,1.1272711E4,0E0,1.9774951E3,9.3370825E2,0E0,0E0,0E0,0E0],"parents":[2147483647,0,0,1,1,3,3,4,4],"right_children":[2,4,-1,6,8,-1,-1,-1,-1],"split_conditions":[3E0,1.755E0,3.5022683E0,1.1568E2,5E-1,-2.93878E-1,-1.4781948E0,1.6331236E-1,9.45398E-1],"split_indices":[0,19,0,21,7,0,0,0,0],"split_type":[0,0,0,0,0,0,0,0,0],"sum_hessian":[4E1,3.7E1,3E0,2.1E1,1.6E1,6E0,1.5E1,1.1E1,5E0],"tree_param":{"num_deleted":"0","num_feature":"24","num_nodes":"9","size_leaf_vector":"1"}},{"base_weights":[4.6002038E-2,-1.5512521E1,2.3409286E1,-2.2043552E1,-3.7406561E0,1.8328552E-1,2.736308E1,-1.3673706E-1,-1.2277474E0,7.6053515E-2,-4.3578926E-1,1.7446495E0,3.4319255E-1],"categories":[],"categories_nodes":[],"categories_segments":[],"categories_sizes":[],"default_left":[0,0,0,0,0,0,0,0,0,0,0,0,0],"id":44,"left_children":[1,3,5,7,9,-1,11,-1,-1,-1,-1,-1,-1],"loss_changes":[1.4543154E4,1.6673711E3,1.0328682E3,5.794331E2,3.1806744E2,0E0,1.5067666E3,0E0,0E0,0E0,0E0,0E0,0E0],"parents":[2147483647,0,0,1,1,2,2,3,3,4,4,6,6],"right_children":[2,4,6,8,10,-1,12,-1,-1,-1,-1,-1,-1],"split_conditions":[2.7695E1,1.4937E1,5.25E0,3.5E-1,1.847E2,1.8328552E-1,9.68E0,-1.3673706E-1,-1.2277474E0,7.6053515E-2,-4.3578926E-1,1.7446495E0,3.4319255E-1],"split_indices":[17,17,1,7,21,0,20,0,0,0,0,0,0],"split_type":[0,0,0,0,0,0,0,0,0,0,0,0,0],"sum_hessian":[3.6E1,2.2E1,1.4E1,1.3E1,9E0,3E0,1.1E1,2E0,1.1E1,5E0,4E0,7E0,4E0],"tree_param":{"num_deleted":"0","num_feature":"24","num_nodes":"13","size_leaf_vector":"1"}},{"base_weights":[3.016018E0,-7.2863727E0,3.195418E0,-1.8850618E1,9.494011E0,-1.3110442E0,-3.333732E-1,-7.081037E-2,7.3780745E-1],"categories":[],"categories_nodes":[],"categories_segments":[],"categories_sizes":[],"default_left":[0,0,0,0,0,0,0,0,0],"id":45,"left_children":[1,3,-1,5,7,-1,-1,-1,-1],"loss_changes":[2.6053096E4,7.348503E3,0E0,1.6093506E3,9.670425E2,0E0,0E0,0E0,0E0],"parents":[2147483647,0,0,1,1,3,3,4,4],"right_children":[2,4,-1,6,8,-1,-1,-1,-1],"split_conditions":[2.8E0,1.755E0,3.195418E0,3E-1,5E-1,-1.3110442E0,-3.333732E-1,-7.081037E-2,7.3780745E-1],"split_indices":[0,19,0,8,8,0,0,0,0],"split_type":[0,0,0,0,0,0,0,0,0],"sum_hessian":[3.8E1,3.4E1,4E0,2E1,1.4E1,1.1E1,9E0,5E0,9E0],"tree_param":{"num_deleted":"0","num_feature":"24","num_nodes":"9","size_leaf_vector":"1"}},{"base_weights":[6.5548205E0,-1.507244E1,3.8890064E1,-2.1206434E1,-4.340042E0,2.1906303E1,4.150457E0,-1.2950524E0,-5.871862E-1,-5.310303E-1,6.964455E-2,1.4266042E0,4.4566116E-1],"categories":[],"categories_nodes":[],"categories_segments":[],"categories_sizes":[],"default_left":[0,0,0,0,0,0,0,0,0,0,0,0,0],"id":46,"left_children":[1,3,5,7,9,11,-1,-1,-1,-1,-1,-1,-1],"loss_changes":[2.985648E4,1.5147974E3,9.048928E3,8.36084E1,4.6627313E2,7.639917E2,0E0,0E0,0E0,0E0,0E0,0E0,0E0],"parents":[2147483647,0,0,1,1,2,2,3,3,4,4,5,5],"right_children":[2,4,6,8,10,12,-1,-1,-1,-1,-1,-1,-1],"split_conditions":[2.015E1,1E0,8E0,1.05E0,1.3E1,2.13E1,4.150457E0,-1.2950524E0,-5.871862E-1,-5.310303E-1,6.964455E-2,1.4266042E0,4.4566116E-1],"split_indices":[15,3,5,1,16,16,0,0,0,0,0,0,0],"split_type":[0,0,0,0,0,0,0,0,0,0,0,0,0],"sum_hessian":[3.9E1,2.4E1,1.5E1,1.4E1,1E1,1.3E1,2E0,7E0,7E0,4E0,6E0,7E0,6E0],"tree_param":{"num_deleted":"0","num_feature":"24","num_nodes":"13","size_leaf_vector":"1"}},{"base_weights":[7.1407413E0,-2.8777611E0,4.026253E0,-1.6583439E1,1.4165597E1,-1.1769762E0,-6.2459987E-2,1.0541114E0,2.1829239E-1],"categories":[],"categories_nodes":[],"categories_segments":[],"categories_sizes":[],"default_left":[0,0,0,0,0,0,0,0,0],"id":47,"left_children":[1,3,-1,5,7,-1,-1,-1,-1],"loss_changes":[3.0645527E4,9.347487E3,0E0,2.2754526E3,1.02325464E3,0E0,0E0,0E0,0E0],"parents":[2147483647,0,0,1,1,3,3,4,4],"right_children":[2,4,-1,6,8,-1,-1,-1,-1],"split_conditions":[1.58E1,1.965E1,4.026253E0,1E0,9.8E0,-1.1769762E0,-6.2459987E-2,1.0541114E0,2.1829239E-1],"split_indices":[12,15,0,3,20,0,0,0,0],"split_type":[0,0,0,0,0,0,0,0,0],"sum_hessian":[3.9E1,3.6E1,3E0,2E1,1.6E1,1.3E1,7E0,8E0,8E0],"tree_param":{"num_deleted":"0","num_feature":"24","num_nodes":"9","size_leaf_vector":"1"}},{"base_weights":[6.978565E-1,-1.023236E1,2.942153E0,-1.7656559E1,7.1059403E0,-1.388312E0,-5.3962046E-1,8.873342E-2,4.7869524E-1],"categories":[],"categories_nodes":[],"categories_segments":[],"categories_sizes":[],"default_left":[0,0,0,0,0,0,0,0,0],"id":48,"left_children":[1,3,-1,5,7,-1,-1,-1,-1],"loss_changes":[2.410794E4,4.375344E3,0E0,9.774619E2,1.0507605E2,0E0,0E0,0E0,0E0],"parents":[2147483647,0,0,1,1,3,3,4,4],"right_children":[2,4,-1,6,8,-1,-1,-1,-1],"split_conditions":[2.23E0,3E0,2.942153E0,7E-1,2.113E1,-1.388312E0,-5.3962046E-1,8.873342E-2,4.7869524E-1],"split_indices":[18,2,0,1,15,0,0,0,0],"split_type":[0,0,0,0,0,0,0,0,0],"sum_hessian":[3.4E1,3E1,4E0,2.1E1,9E0,6E0,1.5E1,4E0,5E0],"tree_param":{"num_deleted":"0","num_feature":"24","num_nodes":"9","size_leaf_vector":"1"}},{"base_weights":[4.768123E0,-6.746692E0,4.9823357E1,-2.1505566E1,3.4435902E0,3.903279E0,1.937827E1,-8.6047366E-2,-1.2123066E0,-2.0167871E-1,5.505793E-1,2.835434E-1,1.1246442E0],"categories":[],"categories_nodes":[],"categories_segments":[],"categories_sizes":[],"default_left":[0,0,0,0,0,0,0,0,0,0,0,0,0],"id":49,"left_children":[1,3,5,7,9,-1,11,-1,-1,-1,-1,-1,-1],"loss_changes":[2.300234E4,5.5714395E3,4.66426E3,7.168789E2,1.3938256E3,0E0,2.9662598E1,0E0,0E0,0E0,0E0,0E0,0E0],"parents":[2147483647,0,0,1,1,2,2,3,3,4,4,6,6],"right_children":[2,4,6,8,10,-1,12,-1,-1,-1,-1,-1,-1],"split_conditions":[2.73E1,1.475E1,5.25E0,6.2E-1,1.42E0,3.903279E0,8.1E1,-8.6047366E-2,-1.2123066E0,-2.0167871E-1,5.505793E-1,2.835434E-1,1.1246442E0],"split_indices":[15,15,1,0,0,0,21,0,0,0,0,0,0],"split_type":[0,0,0,0,0,0,0,0,0,0,0,0,0],"sum_hessian":[4.1E1,3.4E1,7E0,1.3E1,2.1E1,2E0,5E0,2E0,1.1E1,1.1E1,1E1,2E0,3E0],"tree_param":{"num_deleted":"0","num_feature":"24","num_nodes":"13","size_leaf_vector":"1"}},{"base_weights":[4.437859E0,-4.3917236E0,3.758265E0,-1.4386553E1,1.2992266E1,-1.2188854E0,-2.8060123E-1,1.9996853E-1,8.769064E-1],"categories":[],"categories_nodes":[],"categories_segments":[],"categories_sizes":[],"default_left":[0,0,0,0,0,0,0,0,0],"id":50,"left_children":[1,3,-1,5,7,-1,-1,-1,-1],"loss_changes":[2.8173324E4,7.498275E3,0E0,2.078416E3,5.030359E2,0E0,0E0,0E0,0E0],"parents":[2147483647,0,0,1,1,3,3,4,4],"right_children":[2,4,-1,6,8,-1,-1,-1,-1],"split_conditions":[1.58E1,2.1663E1,3.758265E0,1.05E0,3.0615E1,-1.2188854E0,-2.8060123E-1,1.9996853E-1,8.769064E-1],"split_indices":[12,17,0,1,17,0,0,0,0],"split_type":[0,0,0,0,0,0,0,0,0],"sum_hessian":[4.2E1,3.9E1,3E0,2.5E1,1.4E1,1E1,1.5E1,6E0,8E0],"tree_param":{"num_deleted":"0","num_feature":"24","num_nodes":"9","size_leaf_vector":"1"}},{"base_weights":[3.8854728E0,-4.3097677E0,3.6455178E0,-1.4236195E1,1.1030958E1,-8.8686895E-1,1.9235383E-1,1.2286886E-1,7.997312E-1],"categories":[],"categories_nodes":[],"categories_segments":[],"categories_sizes":[],"default_left":[0,0,0,0,0,0,0,0,0],"id":51,"left_children":[1,3,-1,5,7,-1,-1,-1,-1],"loss_changes":[2.6683826E4,6.8636597E3,0E0,1.8528662E3,6.7817944E2,0E0,0E0,0E0,0E0],"parents":[2147483647,0,0,1,1,3,3,4,4],"right_children":[2,4,-1,6,8,-1,-1,-1,-1],"split_conditions":[1.58E1,1.965E1,3.6455178E0,2.1663E1,6.8E-1,-8.8686895E-1,1.9235383E-1,1.2286886E-1,7.997312E-1],"split_indices":[12,15,0,17,18,0,0,0,0],"split_type":[0,0,0,0,0,0,0,0,0],"sum_hessian":[4.4E1,4.1E1,3E0,2.5E1,1.6E1,2.1E1,4E0,7E0,9E0],"tree_param":{"num_deleted":"0","num_feature":"24","num_nodes":"9","size_leaf_vector":"1"}},{"base_weights":[5.9724603E0,-6.7581677E0,4.3123898E1,-1.4402944E1,5.6387353E0,2.0468283E1,3.620604E0,-8.5635886E-2,-8.5789865E-1,6.874876E-2,6.331757E-1,5.6804657E-2,1.279787E0],"categories":[],"categories_nodes":[],"categories_segments":[],"categories_sizes":[],"default_left":[0,0,0,0,0,0,0,0,0,0,0,0,0],"id":52,"left_children":[1,3,5,7,9,11,-1,-1,-1,-1,-1,-1,-1],"loss_changes":[2.0465426E4,3.2942722E3,4.288217E3,6.659912E2,3.7748434E2,8.206001E2,0E0,0E0,0E0,0E0,0E0,0E0,0E0],"parents":[2147483647,0,0,1,1,2,2,3,3,4,4,5,5],"right_children":[2,4,6,8,10,12,-1,-1,-1,-1,-1,-1,-1],"split_conditions":[2.3E0,9E-1,4E0,1.1568E2,5E-1,5E-1,3.620604E0,-8.5635886E-2,-8.5789865E-1,6.874876E-2,6.331757E-1,5.6804657E-2,1.279787E0],"split_indices":[0,2,3,21,7,8,0,0,0,0,0,0,0],"split_type":[0,0,0,0,0,0,0,0,0,0,0,0,0],"sum_hessian":[4E1,3.1E1,9E0,1.9E1,1.2E1,7E0,2E0,4E0,1.5E1,9E0,3E0,2E0,5E0],"tree_param":{"num_deleted":"0","num_feature":"24","num_nodes":"13","size_leaf_vector":"1"}},{"base_weights":[5.086001E0,-2.4621964E0,3.530089E0,-1.3208788E1,1.1073264E1,-1.0041193E0,-7.906784E-2,7.094203E-1,2.7468363E-2],"categories":[],"categories_nodes":[],"categories_segments":[],"categories_sizes":[],"default_left":[0,0,0,0,0,0,0,0,0],"id":53,"left_children":[1,3,-1,5,7,-1,-1,-1,-1],"loss_changes":[1.9173729E4,5.5301587E3,0E0,1.604021E3,5.343601E2,0E0,0E0,0E0,0E0],"parents":[2147483647,0,0,1,1,3,3,4,4],"right_children":[2,4,-1,6,8,-1,-1,-1,-1],"split_conditions":[1.58E1,1.95E1,3.530089E0,1.7E0,2.8E0,-1.0041193E0,-7.906784E-2,7.094203E-1,2.7468363E-2],"split_indices":[12,15,0,12,3,0,0,0,0],"split_type":[0,0,0,0,0,0,0,0,0],"sum_hessian":[3.6E1,3.4E1,2E0,1.9E1,1.5E1,1.1E1,8E0,1.1E1,4E0],"tree_param":{"num_deleted":"0","num_feature":"24","num_nodes":"9","size_leaf_vector":"1"}},{"base_weights":[4.6088986E0,-7.590706E0,4.399581E1,-1.2480668E1,4.4129777E0,2.05139E1,3.4418366E0,-7.8658724E-1,-2.3664062E-1,4.773189E-2,3.4466907E-1,1.2996334E0,9.569015E-2],"categories":[],"categories_nodes":[],"categories_segments":[],"categories_sizes":[],"default_left":[0,0,0,0,0,0,0,0,0,0,0,0,0],"id":54,"left_children":[1,3,5,7,9,11,-1,-1,-1,-1,-1,-1,-1],"loss_changes":[2.0386816E4,2.0512075E3,2.9642266E3,4.4538965E2,7.72735E1,7.018015E2,0E0,0E0,0E0,0E0,0E0,0E0,0E0],"parents":[2147483647,0,0,1,1,2,2,3,3,4,4,5,5],"right_children":[2,4,6,8,10,12,-1,-1,-1,-1,-1,-1,-1],"split_conditions":[2.3E0,2.1663E1,4E0,1E0,3.85E0,1.6E0,3.4418366E0,-7.8658724E-1,-2.3664062E-1,4.773189E-2,3.4466907E-1,1.2996334E0,9.569015E-2],"split_indices":[0,17,3,3,2,3,0,0,0,0,0,0,0],"split_type":[0,0,0,0,0,0,0,0,0,0,0,0,0],"sum_hessian":[3.9E1,3.1E1,8E0,2.2E1,9E0,6E0,2E0,1.4E1,8E0,5E0,4E0,4E0,2E0],"tree_param":{"num_deleted":"0","num_feature":"24","num_nodes":"13","size_leaf_vector":"1"}},{"base_weights":[7.936647E0,-2.2580533E-1,3.263207E0,-1.53298235E1,8.230509E0,-1.5442733E-1,-8.406806E-1,1.2498655E-1,7.512138E-1],"categories":[],"categories_nodes":[],"categories_segments":[],"categories_sizes":[],"default_left":[0,0,0,0,0,0,0,0,0],"id":55,"left_children":[1,3,-1,5,7,-1,-1,-1,-1],"loss_changes":[1.8779309E4,4.981694E3,0E0,1.4047827E2,8.8946387E2,0E0,0E0,0E0,0E0],"parents":[2147483647,0,0,1,1,3,3,4,4],"right_children":[2,4,-1,6,8,-1,-1,-1,-1],"split_conditions":[1.58E1,1.475E1,3.263207E0,7E-1,1.9E0,-1.5442733E-1,-8.406806E-1,1.2498655E-1,7.512138E-1],"split_indices":[12,15,0,0,0,0,0,0,0],"split_type":[0,0,0,0,0,0,0,0,0],"sum_hessian":[3.8E1,3.5E1,3E0,1.2E1,2.3E1,2E0,1E1,1.4E1,9E0],"tree_param":{"num_deleted":"0","num_feature":"24","num_nodes":"9","size_leaf_vector":"1"}},{"base_weights":[1.5472008E0,-6.827582E0,2.8988423E0,-1.8437733E1,3.1182969E0,-1.2936229E0,-5.1543874E-1,-5.5485256E-2,3.4123954E-1],"categories":[],"categories_nodes":[],"categories_segments":[],"categories_sizes":[],"default_left":[0,0,0,0,0,0,0,0,0],"id":56,"left_children":[1,3,-1,5,7,-1,-1,-1,-1],"loss_changes":[1.830294E4,4.0487354E3,0E0,4.1546777E2,3.314258E2,0E0,0E0,0E0,0E0],"parents":[2147483647,0,0,1,1,3,3,4,4],"right_children":[2,4,-1,6,8,-1,-1,-1,-1],"split_conditions":[3.04E1,1E0,2.8988423E0,7E-1,5.15E0,-1.2936229E0,-5.1543874E-1,-5.5485256E-2,3.4123954E-1],"split_indices":[16,3,0,1,12,0,0,0,0],"split_type":[0,0,0,0,0,0,0,0,0],"sum_hessian":[3.5E1,3.2E1,3E0,1.4E1,1.8E1,5E0,9E0,9E0,9E0],"tree_param":{"num_deleted":"0","num_feature":"24","num_nodes":"9","size_leaf_vector":"1"}},{"base_weights":[1.0968394E0,-5.943497E0,2.0316626E1,-1.2346058E1,2.371231E0,4.490433E-2,2.3970715E1,-9.763238E-1,-3.478206E-1,-1.06251305E-2,5.1768416E-1,1.5065521E0,2.8289858E-1],"categories":[],"categories_nodes":[],"categories_segments":[],"categories_sizes":[],"default_left":[0,0,0,0,0,0,0,0,0,0,0,0,0],"id":57,"left_children":[1,3,5,7,9,-1,11,-1,-1,-1,-1,-1,-1],"loss_changes":[6.0671816E3,1.8203115E3,7.959951E2,4.5038843E2,3.3946344E2,0E0,7.6926855E2,0E0,0E0,0E0,0E0,0E0,0E0],"parents":[2147483647,0,0,1,1,2,2,3,3,4,4,6,6],"right_children":[2,4,6,8,10,-1,12,-1,-1,-1,-1,-1,-1],"split_conditions":[1.9E0,1.1E0,5E0,7E-1,2.245E1,4.490433E-2,8.2E0,-9.763238E-1,-3.478206E-1,-1.06251305E-2,5.1768416E-1,1.5065521E0,2.8289858E-1],"split_indices":[0,3,1,1,15,0,20,0,0,0,0,0,0],"split_type":[0,0,0,0,0,0,0,0,0,0,0,0,0],"sum_hessian":[4.1E1,3.1E1,1E1,1.7E1,1.4E1,2E0,8E0,5E0,1.2E1,1.2E1,2E0,5E0,3E0],"tree_param":{"num_deleted":"0","num_feature":"24","num_nodes":"13","size_leaf_vector":"1"}},{"base_weights":[-1.1288594E0,-7.453121E0,1.4573763E1,-9.414553E-1,-3.9331903E0,2.1858113E0,1.9538229E1,-3.100976E-1,2.244998E-2,-0E0,1.6480331E-1,1.1522605E0,1.7534485E-1],"categories":[],"categories_nodes":[],"categories_segments":[],"categories_sizes":[],"default_left":[0,0,0,0,0,0,0,0,0,0,0,0,0],"id":58,"left_children":[1,3,5,-1,7,9,11,-1,-1,-1,-1,-1,-1],"loss_changes":[4.483902E3,1.1218678E3,7.032185E2,0E0,2.768837E2,1.4789583E1,3.3108398E2,0E0,0E0,0E0,0E0,0E0,0E0],"parents":[2147483647,0,0,1,1,2,2,4,4,5,5,6,6],"right_children":[2,4,6,-1,8,10,12,-1,-1,-1,-1,-1,-1],"split_conditions":[3.85E0,7E-1,5.25E0,-9.414553E-1,9E-1,1.8837E2,1.5E1,-3.100976E-1,2.244998E-2,-0E0,1.6480331E-1,1.1522605E0,1.7534485E-1],"split_indices":[2,1,1,0,2,21,1,0,0,0,0,0,0],"split_type":[0,0,0,0,0,0,0,0,0,0,0,0,0],"sum_hessian":[4.1E1,3E1,1.1E1,5E0,2.5E1,4E0,7E0,1.6E1,9E0,2E0,2E0,5E0,2E0],"tree_param":{"num_deleted":"0","num_feature":"24","num_nodes":"13","size_leaf_vector":"1"}},{"base_weights":[-1.3660489E0,-8.903531E0,1.9393639E1,-1.6837688E1,-1.7154609E0,8.5101185E0,1.702987E0,-1.9508493E-1,-1.1550875E0,-4.9514467E-1,1.0013951E-1,5.7189375E-1,-3.7175752E-2],"categories":[],"categories_nodes":[],"categories_segments":[],"categories_sizes":[],"default_left":[0,0,0,0,0,0,0,0,0,0,0,0,0],"id":59,"left_children":[1,3,5,7,9,11,-1,-1,-1,-1,-1,-1,-1],"loss_changes":[6.442654E3,1.6438926E3,1.1548169E3,9.406721E2,5.915896E2,2.6618713E2,0E0,0E0,0E0,0E0,0E0,0E0,0E0],"parents":[2147483647,0,0,1,1,2,2,3,3,4,4,5,5],"right_children":[2,4,6,8,10,12,-1,-1,-1,-1,-1,-1,-1],"split_conditions":[2.245E1,1E0,1.475E1,5E-1,1.05E0,5.5E-1,1.702987E0,-1.9508493E-1,-1.1550875E0,-4.9514467E-1,1.0013951E-1,5.7189375E-1,-3.7175752E-2],"split_indices":[15,0,12,7,1,8,0,0,0,0,0,0,0],"split_type":[0,0,0,0,0,0,0,0,0,0,0,0,0],"sum_hessian":[3.7E1,2.8E1,9E0,1.2E1,1.6E1,7E0,2E0,5E0,7E0,4E0,1.2E1,5E0,2E0],"tree_param":{"num_deleted":"0","num_feature":"24","num_nodes":"13","size_leaf_vector":"1"}},{"base_weights":[3.0543914E0,-4.1714053E0,4.5474377E1,-1.1386547E0,1.050472E0,6.8599933E-1,2.718329E0,-1.4967413E-1,5.6035703E-1],"categories":[],"categories_nodes":[],"categories_segments":[],"categories_sizes":[],"default_left":[0,0,0,0,0,0,0,0,0],"id":60,"left_children":[1,3,5,-1,7,-1,-1,-1,-1],"loss_changes":[1.2660764E4,3.5555933E3,1.6833789E2,0E0,1.3033967E3,0E0,0E0,0E0,0E0],"parents":[2147483647,0,0,1,1,2,2,4,4],"right_children":[2,4,6,-1,8,-1,-1,-1,-1],"split_conditions":[9.5E0,7E-1,3.4E0,-1.1386547E0,2.245E1,6.8599933E-1,2.718329E0,-1.4967413E-1,5.6035703E-1],"split_indices":[2,1,0,0,15,0,0,0,0],"split_type":[0,0,0,0,0,0,0,0,0],"sum_hessian":[3.8E1,3.4E1,4E0,6E0,2.8E1,2E0,2E0,2.1E1,7E0],"tree_param":{"num_deleted":"0","num_feature":"24","num_nodes":"9","size_leaf_vector":"1"}},{"base_weights":[2.2426672E0,-5.3717365E0,2.067925E1,-1.1595373E1,7.2946674E-1,3.580017E-2,2.4133295E1,-3.5038656E-1,-8.4110993E-1,-4.0309173E-1,1.7979859E-1,1.505243E0,2.412738E-1],"categories":[],"categories_nodes":[],"categories_segments":[],"categories_sizes":[],"default_left":[0,0,0,0,0,0,0,0,0,0,0,0,0],"id":61,"left_children":[1,3,5,7,9,-1,11,-1,-1,-1,-1,-1,-1],"loss_changes":[6.266315E3,1.2374434E3,8.494175E2,1.359751E2,5.0935284E2,0E0,9.60271E2,0E0,0E0,0E0,0E0,0E0,0E0],"parents":[2147483647,0,0,1,1,2,2,3,3,4,4,6,6],"right_children":[2,4,6,8,10,-1,12,-1,-1,-1,-1,-1,-1],"split_conditions":[3.7518E1,1E0,5E0,8E-1,2.5E-1,3.580017E-2,8.2E0,-3.5038656E-1,-8.4110993E-1,-4.0309173E-1,1.7979859E-1,1.505243E0,2.412738E-1],"split_indices":[17,3,1,7,8,0,20,0,0,0,0,0,0],"split_type":[0,0,0,0,0,0,0,0,0,0,0,0,0],"sum_hessian":[4.1E1,3E1,1.1E1,1.4E1,1.6E1,2E0,9E0,1E1,4E0,3E0,1.3E1,6E0,3E0],"tree_param":{"num_deleted":"0","num_feature":"24","num_nodes":"13","size_leaf_vector":"1"}},{"base_weights":[-3.6734548E0,-1.2483628E1,1.0520372E1,-1.6635464E1,-4.129389E0,1.6082344E0,1.5496008E1,-1.0766827E0,-4.6699095E-1,4.050925E-2,-4.2995477E-1,2.2451352E-1,-1.6969681E-1,9.486359E-1,3.347931E-2],"categories":[],"categories_nodes":[],"categories_segments":[],"categories_sizes":[],"default_left":[0,0,0,0,0,0,0,0,0,0,0,0,0,0,0],"id":62,"left_children":[1,3,5,7,9,11,13,-1,-1,-1,-1,-1,-1,-1,-1],"loss_changes":[5.1405996E3,7.193645E2,6.511023E2,1.5408984E2,2.6069107E2,1.4635901E2,4.8024268E2,0E0,0E0,0E0,0E0,0E0,0E0,0E0,0E0],"parents":[2147483647,0,0,1,1,2,2,3,3,4,4,5,5,6,6],"right_children":[2,4,6,8,10,12,14,-1,-1,-1,-1,-1,-1,-1,-1],"split_conditions":[2.5038E1,1E0,1.9E0,7E-1,5E-1,1E1,1.55E0,-1.0766827E0,-4.6699095E-1,4.050925E-2,-4.2995477E-1,2.2451352E-1,-1.6969681E-1,9.486359E-1,3.347931E-2],"split_indices":[17,3,0,1,2,13,5,0,0,0,0,0,0,0,0],"split_type":[0,0,0,0,0,0,0,0,0,0,0,0,0,0,0],"sum_hessian":[3.7E1,2.3E1,1.4E1,1.4E1,9E0,6E0,8E0,6E0,8E0,5E0,4E0,4E0,2E0,6E0,2E0],"tree_param":{"num_deleted":"0","num_feature":"24","num_nodes":"15","size_leaf_vector":"1"}},{"base_weights":[4.5207505E0,-2.2389247E0,3.0766265E0,-8.231804E0,1.0577728E1,-7.870572E-1,-1.0044537E-1,6.8722504E-1,2.7322387E-2],"categories":[],"categories_nodes":[],"categories_segments":[],"categories_sizes":[],"default_left":[0,0,0,0,0,0,0,0,0],"id":63,"left_children":[1,3,-1,5,7,-1,-1,-1,-1],"loss_changes":[1.4564281E4,2.8612776E3,0E0,1.0961262E3,3.5903455E2,0E0,0E0,0E0,0E0],"parents":[2147483647,0,0,1,1,3,3,4,4],"right_children":[2,4,-1,6,8,-1,-1,-1,-1],"split_conditions":[8E0,2.7695E1,3.0766265E0,7.419E0,9.8E0,-7.870572E-1,-1.0044537E-1,6.8722504E-1,2.7322387E-2],"split_indices":[5,22,0,13,20,0,0,0,0],"split_type":[0,0,0,0,0,0,0,0,0],"sum_hessian":[3.5E1,3.3E1,2E0,2.3E1,1E1,9E0,1.4E1,7E0,3E0],"tree_param":{"num_deleted":"0","num_feature":"24","num_nodes":"9","size_leaf_vector":"1"}},{"base_weights":[6.281449E0,-1.0703397E0,2.8400874E0,-7.0760064E0,9.34228E0,-6.5499836E-1,-2.042747E-1,5.943136E-1,-0E0],"categories":[],"categories_nodes":[],"categories_segments":[],"categories_sizes":[],"default_left":[0,0,0,0,0,0,0,0,0],"id":64,"left_children":[1,3,-1,5,7,-1,-1,-1,-1],"loss_changes":[1.4634627E4,2.382329E3,0E0,3.1672107E2,3.3222314E2,0E0,0E0,0E0,0E0],"parents":[2147483647,0,0,1,1,3,3,4,4],"right_children":[2,4,-1,6,8,-1,-1,-1,-1],"split_conditions":[1.475E1,1.95E1,2.8400874E0,7E-1,2.8E0,-6.5499836E-1,-2.042747E-1,5.943136E-1,-0E0],"split_indices":[12,15,0,1,3,0,0,0,0],"split_type":[0,0,0,0,0,0,0,0,0],"sum_hessian":[3.7E1,3.4E1,3E0,2.2E1,1.2E1,5E0,1.7E1,9E0,3E0],"tree_param":{"num_deleted":"0","num_feature":"24","num_nodes":"9","size_leaf_vector":"1"}},{"base_weights":[3.7885945E0,-2.9709613E0,2.7548847E0,-1.760807E1,1.3157854E0,-1.3365059E-1,-1.0520042E0,-2.0752637E-2,5.4641664E-1],"categories":[],"categories_nodes":[],"categories_segments":[],"categories_sizes":[],"default_left":[0,0,0,0,0,0,0,0,0],"id":65,"left_children":[1,3,-1,5,7,-1,-1,-1,-1],"loss_changes":[1.4920172E4,2.5015605E3,0E0,3.3697852E2,5.467367E2,0E0,0E0,0E0,0E0],"parents":[2147483647,0,0,1,1,3,3,4,4],"right_children":[2,4,-1,6,8,-1,-1,-1,-1],"split_conditions":[1.58E1,7E-1,2.7548847E0,2.5E-1,1.8E1,-1.3365059E-1,-1.0520042E0,-2.0752637E-2,5.4641664E-1],"split_indices":[12,1,0,1,1,0,0,0,0],"split_type":[0,0,0,0,0,0,0,0,0],"sum_hessian":[4E1,3.7E1,3E0,7E0,3E1,2E0,5E0,2.7E1,3E0],"tree_param":{"num_deleted":"0","num_feature":"24","num_nodes":"9","size_leaf_vector":"1"}},{"base_weights":[2.7029305E0,-4.276188E0,4.0270435E1,-1.4743572E1,2.2751021E0,5.821236E-1,2.4319093E0,-3.404785E-1,-1.082336E0,-2.7268046E-1,2.6096326E-1],"categories":[],"categories_nodes":[],"categories_segments":[],"categories_sizes":[],"default_left":[0,0,0,0,0,0,0,0,0,0,0],"id":66,"left_children":[1,3,5,7,9,-1,-1,-1,-1,-1,-1],"loss_changes":[1.0063364E4,2.336291E3,2.7463086E2,4.029668E2,5.5741144E2,0E0,0E0,0E0,0E0,0E0,0E0],"parents":[2147483647,0,0,1,1,2,2,3,3,4,4],"right_children":[2,4,6,8,10,-1,-1,-1,-1,-1,-1],"split_conditions":[3E0,1.235E1,3.4E0,5E-1,9E-1,5.821236E-1,2.4319093E0,-3.404785E-1,-1.082336E0,-2.7268046E-1,2.6096326E-1],"split_indices":[0,15,0,7,12,0,0,0,0,0,0],"split_type":[0,0,0,0,0,0,0,0,0,0,0],"sum_hessian":[3.5E1,3.1E1,4E0,1.1E1,2E1,2E0,2E0,7E0,4E0,5E0,1.5E1],"tree_param":{"num_deleted":"0","num_feature":"24","num_nodes":"11","size_leaf_vector":"1"}},{"base_weights":[4.844421E0,-1.0380983E0,2.6209905E0,-6.7481503E0,7.297321E0,-5.4141587E-1,-4.818139E-2,6.2878025E-1,2.5478667E-2],"categories":[],"categories_nodes":[],"categories_segments":[],"categories_sizes":[],"default_left":[0,0,0,0,0,0,0,0,0],"id":67,"left_children":[1,3,-1,5,7,-1,-1,-1,-1],"loss_changes":[1.2728365E4,2.0972307E3,0E0,5.868822E2,6.255389E2,0E0,0E0,0E0,0E0],"parents":[2147483647,0,0,1,1,3,3,4,4],"right_children":[2,4,-1,6,8,-1,-1,-1,-1],"split_conditions":[1.475E1,1.965E1,2.6209905E0,1E0,9.8E0,-5.4141587E-1,-4.818139E-2,6.2878025E-1,2.5478667E-2],"split_indices":[12,15,0,0,20,0,0,0,0],"split_type":[0,0,0,0,0,0,0,0,0],"sum_hessian":[4.3E1,4E1,3E0,2.4E1,1.6E1,1.3E1,1.1E1,8E0,8E0],"tree_param":{"num_deleted":"0","num_feature":"24","num_nodes":"9","size_leaf_vector":"1"}},{"base_weights":[2.7417297E0,-1.7198594E0,2.3055878E0,-1.142782E1,1.8197306E0,-1.1578026E-1,-6.441311E-1,-5.3301405E-2,4.0715152E-1],"categories":[],"categories_nodes":[],"categories_segments":[],"categories_sizes":[],"default_left":[0,0,0,0,0,0,0,0,0],"id":68,"left_children":[1,3,-1,5,7,-1,-1,-1,-1],"loss_changes":[8.307774E3,1.4208833E3,0E0,7.855994E1,5.8657294E2,0E0,0E0,0E0,0E0],"parents":[2147483647,0,0,1,1,3,3,4,4],"right_children":[2,4,-1,6,8,-1,-1,-1,-1],"split_conditions":[6.8745E1,1.05E0,2.3055878E0,2.5E-1,2.245E1,-1.1578026E-1,-6.441311E-1,-5.3301405E-2,4.0715152E-1],"split_indices":[17,1,0,1,15,0,0,0,0],"split_type":[0,0,0,0,0,0,0,0,0],"sum_hessian":[4E1,3.8E1,2E0,9E0,2.9E1,2E0,7E0,2.1E1,8E0],"tree_param":{"num_deleted":"0","num_feature":"24","num_nodes":"9","size_leaf_vector":"1"}},{"base_weights":[3.9012103E0,-1.3447144E0,2.7267425E0,-5.1363907E0,1.1007593E1,-8.762833E-1,-1.048402E-1,-0E0,6.909691E-1],"categories":[],"categories_nodes":[],"categories_segments":[],"categories_sizes":[],"default_left":[0,0,0,0,0,0,0,0,0],"id":69,"left_children":[1,3,-1,5,7,-1,-1,-1,-1],"loss_changes":[1.1329313E4,1.983581E3,0E0,1.1217578E3,3.1613147E2,0E0,0E0,0E0,0E0],"parents":[2147483647,0,0,1,1,3,3,4,4],"right_children":[2,4,-1,6,8,-1,-1,-1,-1],"split_conditions":[3.39E1,1.9E0,2.7267425E0,7E-1,5E0,-8.762833E-1,-1.048402E-1,-0E0,6.909691E-1],"split_indices":[15,0,0,1,1,0,0,0,0],"split_type":[0,0,0,0,0,0,0,0,0],"sum_hessian":[4E1,3.8E1,2E0,3E1,8E0,4E0,2.6E1,2E0,6E0],"tree_param":{"num_deleted":"0","num_feature":"24","num_nodes":"9","size_leaf_vector":"1"}},{"base_weights":[3.6380742E0,-5.0691915E0,3.577928E1,-1.2599733E1,7.687378E-1,2.6585739E0,7.773403E-1,-3.1933594E-2,-7.7209437E-1,-3.2473037E-1,1.9408046E-1],"categories":[],"categories_nodes":[],"categories_segments":[],"categories_sizes":[],"default_left":[0,0,0,0,0,0,0,0,0,0,0],"id":70,"left_children":[1,3,5,7,9,-1,-1,-1,-1,-1,-1],"loss_changes":[1.1852442E4,1.5200216E3,1.479332E3,4.8216284E2,5.2391956E2,0E0,0E0,0E0,0E0,0E0,0E0],"parents":[2147483647,0,0,1,1,2,2,3,3,4,4],"right_children":[2,4,6,8,10,-1,-1,-1,-1,-1,-1],"split_conditions":[2.585E1,1E0,5.25E0,9.63E0,4E0,2.6585739E0,7.773403E-1,-3.1933594E-2,-7.7209437E-1,-3.2473037E-1,1.9408046E-1],"split_indices":[15,0,1,17,15,0,0,0,0,0,0],"split_type":[0,0,0,0,0,0,0,0,0,0,0],"sum_hessian":[3.9E1,3.2E1,7E0,1.3E1,1.9E1,2E0,5E0,3E0,1E1,5E0,1.4E1],"tree_param":{"num_deleted":"0","num_feature":"24","num_nodes":"11","size_leaf_vector":"1"}},{"base_weights":[1.0534586E0,-5.263743E0,1.7238985E1,-1.5985394E1,-1.391715E0,2.448077E-1,1.1061932E0,-9.846718E-1,-1.1528168E-1,-1.3629395E-1,1.373193E-1],"categories":[],"categories_nodes":[],"categories_segments":[],"categories_sizes":[],"default_left":[0,0,0,0,0,0,0,0,0,0,0],"id":71,"left_children":[1,3,5,7,9,-1,-1,-1,-1,-1,-1],"loss_changes":[4.379607E3,1.2337677E3,4.9336523E2,3.0398975E2,1.5298499E2,0E0,0E0,0E0,0E0,0E0,0E0],"parents":[2147483647,0,0,1,1,2,2,3,3,4,4],"right_children":[2,4,6,8,10,-1,-1,-1,-1,-1,-1],"split_conditions":[1.45E0,7E-1,2.15E0,4E-1,2.5E0,2.448077E-1,1.1061932E0,-9.846718E-1,-1.1528168E-1,-1.3629395E-1,1.373193E-1],"split_indices":[0,1,0,3,3,0,0,0,0,0,0],"split_type":[0,0,0,0,0,0,0,0,0,0,0],"sum_hessian":[3.9E1,2.9E1,1E1,6E0,2.3E1,4E0,6E0,4E0,2E0,1.8E1,5E0],"tree_param":{"num_deleted":"0","num_feature":"24","num_nodes":"11","size_leaf_vector":"1"}},{"base_weights":[3.5350778E0,-2.1714604E0,2.3366022E0,-7.471041E0,6.3493176E0,-7.732115E-1,-1.6463736E-1,4.1442108E-1,-5.6604005E-2],"categories":[],"categories_nodes":[],"categories_segments":[],"categories_sizes":[],"default_left":[0,0,0,0,0,0,0,0,0],"id":72,"left_children":[1,3,-1,5,7,-1,-1,-1,-1],"loss_changes":[1.057845E4,1.8565383E3,0E0,7.2372925E2,2.5445984E2,0E0,0E0,0E0,0E0],"parents":[2147483647,0,0,1,1,3,3,4,4],"right_children":[2,4,-1,6,8,-1,-1,-1,-1],"split_conditions":[1.475E1,1.965E1,2.3366022E0,7E-1,5E-1,-7.732115E-1,-1.6463736E-1,4.1442108E-1,-5.6604005E-2],"split_indices":[12,15,0,1,9,0,0,0,0],"split_type":[0,0,0,0,0,0,0,0,0],"sum_hessian":[4E1,3.7E1,3E0,2.3E1,1.4E1,6E0,1.7E1,1.1E1,3E0],"tree_param":{"num_deleted":"0","num_feature":"24","num_nodes":"9","size_leaf_vector":"1"}},{"base_weights":[-0E0,-5.0398297E0,1.7676045E0,-1.4834869E0,-1.6609116E1,-2.975751E-1,1.7234305E-1,-1.0326718E0,-1.0565376E-1],"categories":[],"categories_nodes":[],"categories_segments":[],"categories_sizes":[],"default_left":[0,0,0,0,0,0,0,0,0],"id":73,"left_children":[1,3,-1,5,7,-1,-1,-1,-1],"loss_changes":[7.1378467E3,1.3817273E3,0E0,6.8111743E2,3.7034546E2,0E0,0E0,0E0,0E0],"parents":[2147483647,0,0,1,1,3,3,4,4],"right_children":[2,4,-1,6,8,-1,-1,-1,-1],"split_conditions":[9.5E0,8E-1,1.7676045E0,5.25E0,1E0,-2.975751E-1,1.7234305E-1,-1.0326718E0,-1.0565376E-1],"split_indices":[2,7,0,1,0,0,0,0,0],"split_type":[0,0,0,0,0,0,0,0,0],"sum_hessian":[3.6E1,3.3E1,3E0,2.7E1,6E0,1.4E1,1.3E1,4E0,2E0],"tree_param":{"num_deleted":"0","num_feature":"24","num_nodes":"9","size_leaf_vector":"1"}},{"base_weights":[4.779228E0,-1.7387438E0,2.2341278E0,1.8617437E0,-1.3068142E1,-2.0832741E-1,2.7863932E-1,-9.9824905E-1,1.843094E-1],"categories":[],"categories_nodes":[],"categories_segments":[],"categories_sizes":[],"default_left":[0,0,0,0,0,0,0,0,0],"id":74,"left_children":[1,3,-1,5,7,-1,-1,-1,-1],"loss_changes":[9.279962E3,1.3595856E3,0E0,6.287941E2,1.0797439E3,0E0,0E0,0E0,0E0],"parents":[2147483647,0,0,1,1,3,3,4,4],"right_children":[2,4,-1,6,8,-1,-1,-1,-1],"split_conditions":[1.475E1,8E-1,2.2341278E0,1.414E1,1E0,-2.0832741E-1,2.7863932E-1,-9.9824905E-1,1.843094E-1],"split_indices":[12,7,0,16,0,0,0,0,0],"split_type":[0,0,0,0,0,0,0,0,0],"sum_hessian":[3.3E1,3E1,3E0,2.4E1,6E0,9E0,1.5E1,4E0,2E0],"tree_param":{"num_deleted":"0","num_feature":"24","num_nodes":"9","size_leaf_vector":"1"}},{"base_weights":[1.583401E0,-2.183095E0,1.9761642E0,-1.2724403E1,3.3680943E-1,-1.8615977E-1,-9.869507E-1,-4.7809985E-2,4.288672E-1],"categories":[],"categories_nodes":[],"categories_segments":[],"categories_sizes":[],"default_left":[0,0,0,0,0,0,0,0,0],"id":75,"left_children":[1,3,-1,5,7,-1,-1,-1,-1],"loss_changes":[6.3359546E3,1.1038519E3,0E0,3.4640417E2,3.9314188E2,0E0,0E0,0E0,0E0],"parents":[2147483647,0,0,1,1,3,3,4,4],"right_children":[2,4,-1,6,8,-1,-1,-1,-1],"split_conditions":[3.3E0,7E-1,1.9761642E0,5E-1,2E1,-1.8615977E-1,-9.869507E-1,-4.7809985E-2,4.288672E-1],"split_indices":[0,1,0,1,1,0,0,0,0],"split_type":[0,0,0,0,0,0,0,0,0],"sum_hessian":[4.1E1,3.9E1,2E0,6E0,3.3E1,4E0,2E0,3E1,3E0],"tree_param":{"num_deleted":"0","num_feature":"24","num_nodes":"9","size_leaf_vector":"1"}},{"base_weights":[-2.2971684E-1,-4.3978095E0,8.7977705E0,-2.587465E0,-7.1868014E0,2.3727722E0,5.677288E-1,-2.537119E-1,1.5269645E-1,-4.3856788E-1,-1.1553071E-1,3.1826553E-1,-1.3405763E-1],"categories":[],"categories_nodes":[],"categories_segments":[],"categories_sizes":[],"default_left":[0,0,0,0,0,0,0,0,0,0,0,0,0],"id":76,"left_children":[1,3,5,7,9,11,-1,-1,-1,-1,-1,-1,-1],"loss_changes":[1.4297683E3,8.9196594E1,1.3638232E2,2.9855136E2,2.3463928E1,1.5704274E2,0E0,0E0,0E0,0E0,0E0,0E0,0E0],"parents":[2147483647,0,0,1,1,2,2,3,3,4,4,5,5],"right_children":[2,4,6,8,10,12,-1,-1,-1,-1,-1,-1,-1],"split_conditions":[2.245E1,1.832E1,2.585E1,1.475E1,1.798E1,2.342E1,5.677288E-1,-2.537119E-1,1.5269645E-1,-4.3856788E-1,-1.1553071E-1,3.1826553E-1,-1.3405763E-1],"split_indices":[15,16,15,15,22,15,0,0,0,0,0,0,0],"split_type":[0,0,0,0,0,0,0,0,0,0,0,0,0],"sum_hessian":[3.4E1,2.4E1,1E1,1.7E1,7E0,4E0,6E0,1.2E1,5E0,4E0,3E0,2E0,2E0],"tree_param":{"num_deleted":"0","num_feature":"24","num_nodes":"13","size_leaf_vector":"1"}},{"base_weights":[1.4127258E0,-3.9970913E0,2.8129604E1,-1.2571228E1,-9.3775505E-1,4.3401858E-1,1.9125671E0,-2.4203872E-2,-7.907482E-1,-2.703465E-1,8.610286E-2],"categories":[],"categories_nodes":[],"categories_segments":[],"categories_sizes":[],"default_left":[0,0,0,0,0,0,0,0,0,0,0],"id":77,"left_children":[1,3,5,7,9,-1,-1,-1,-1,-1,-1],"loss_changes":[6.018277E3,8.8775885E2,6.904829E2,3.2940686E2,3.5330515E2,0E0,0E0,0E0,0E0,0E0,0E0],"parents":[2147483647,0,0,1,1,2,2,3,3,4,4],"right_children":[2,4,6,8,10,-1,-1,-1,-1,-1,-1],"split_conditions":[2.48E1,7E-1,3.4E0,2.5E-1,9.5E-1,4.3401858E-1,1.9125671E0,-2.4203872E-2,-7.907482E-1,-2.703465E-1,8.610286E-2],"split_indices":[15,1,0,1,0,0,0,0,0,0,0],"split_type":[0,0,0,0,0,0,0,0,0,0,0],"sum_hessian":[3.8E1,3.3E1,5E0,7E0,2.6E1,3E0,2E0,2E0,5E0,9E0,1.7E1],"tree_param":{"num_deleted":"0","num_feature":"24","num_nodes":"11","size_leaf_vector":"1"}},{"base_weights":[2.907983E0,-2.1703084E0,2.3641808E0,-4.3625655E0,5.320367E0,-4.752899E-1,-1.2390379E-1,4.1641364E-1,-1.2393265E-1],"categories":[],"categories_nodes":[],"categories_segments":[],"categories_sizes":[],"default_left":[0,0,0,0,0,0,0,0,0],"id":78,"left_children":[1,3,-1,5,7,-1,-1,-1,-1],"loss_changes":[8.7911875E3,6.371155E2,0E0,2.2797467E2,2.5533913E2,0E0,0E0,0E0,0E0],"parents":[2147483647,0,0,1,1,3,3,4,4],"right_children":[2,4,-1,6,8,-1,-1,-1,-1],"split_conditions":[1.8E1,1.9E0,2.3641808E0,7E-1,1.6E0,-4.752899E-1,-1.2390379E-1,4.1641364E-1,-1.2393265E-1],"split_indices":[12,0,0,1,3,0,0,0,0],"split_type":[0,0,0,0,0,0,0,0,0],"sum_hessian":[3.6E1,3.4E1,2E0,2.7E1,7E0,5E0,2.2E1,5E0,2E0],"tree_param":{"num_deleted":"0","num_feature":"24","num_nodes":"9","size_leaf_vector":"1"}},{"base_weights":[-1.5162557E-1,-3.484909E0,1.3900377E1,-9.579693E0,8.4785587E-1,-3.0084992E-2,9.1435856E-1,-1.8230376E-1,-9.0851825E-1,-8.7811016E-2,2.8169048E-1],"categories":[],"categories_nodes":[],"categories_segments":[],"categories_sizes":[],"default_left":[0,0,0,0,0,0,0,0,0,0,0],"id":79,"left_children":[1,3,5,7,9,-1,-1,-1,-1,-1,-1],"loss_changes":[2.199444E3,1.0240864E3,6.0340796E2,6.721708E2,3.2083893E2,0E0,0E0,0E0,0E0,0E0,0E0],"parents":[2147483647,0,0,1,1,2,2,3,3,4,4],"right_children":[2,4,6,8,10,-1,-1,-1,-1,-1,-1],"split_conditions":[2.585E1,2.3E-1,8.1E1,8E-1,5E-1,-3.0084992E-2,9.1435856E-1,-1.8230376E-1,-9.0851825E-1,-8.7811016E-2,2.8169048E-1],"split_indices":[15,18,21,7,7,0,0,0,0,0,0],"split_type":[0,0,0,0,0,0,0,0,0,0,0],"sum_hessian":[4.3E1,3.6E1,7E0,1.4E1,2.2E1,2E0,5E0,1E1,4E0,1.5E1,7E0],"tree_param":{"num_deleted":"0","num_feature":"24","num_nodes":"11","size_leaf_vector":"1"}},{"base_weights":[3.2615159E0,-1.3583342E0,2.2822168E0,-1.0458391E1,1.3551232E0,-1.5357034E-1,-9.015709E-1,-6.519987E-2,2.9121983E-1],"categories":[],"categories_nodes":[],"categories_segments":[],"categories_sizes":[],"default_left":[0,0,0,0,0,0,0,0,0],"id":80,"left_children":[1,3,-1,5,7,-1,-1,-1,-1],"loss_changes":[7.978233E3,9.712159E2,0E0,3.8216138E2,3.8586462E2,0E0,0E0,0E0,0E0],"parents":[2147483647,0,0,1,1,3,3,4,4],"right_children":[2,4,-1,6,8,-1,-1,-1,-1],"split_conditions":[1.58E1,4E0,2.2822168E0,5E-1,2.113E1,-1.5357034E-1,-9.015709E-1,-6.519987E-2,2.9121983E-1],"split_indices":[12,15,0,7,15,0,0,0,0],"split_type":[0,0,0,0,0,0,0,0,0],"sum_hessian":[3.8E1,3.6E1,2E0,7E0,2.9E1,5E0,2E0,1.9E1,1E1],"tree_param":{"num_deleted":"0","num_feature":"24","num_nodes":"9","size_leaf_vector":"1"}},{"base_weights":[1.7907176E0,-2.4515128E0,2.225161E0,-5.0626965E0,5.544933E0,-5.609595E-1,-1.21067144E-1,4.9805123E-2,4.4601288E-1],"categories":[],"categories_nodes":[],"categories_segments":[],"categories_sizes":[],"default_left":[0,0,0,0,0,0,0,0,0],"id":81,"left_children":[1,3,-1,5,7,-1,-1,-1,-1],"loss_changes":[8.030666E3,9.119912E2,0E0,4.59216E2,1.4616241E2,0E0,0E0,0E0,0E0],"parents":[2147483647,0,0,1,1,3,3,4,4],"right_children":[2,4,-1,6,8,-1,-1,-1,-1],"split_conditions":[1.8E1,1.9E0,2.225161E0,7E-1,5E-1,-5.609595E-1,-1.21067144E-1,4.9805123E-2,4.4601288E-1],"split_indices":[12,0,0,1,7,0,0,0,0],"split_type":[0,0,0,0,0,0,0,0,0],"sum_hessian":[4.1E1,3.9E1,2E0,3E1,9E0,7E0,2.3E1,5E0,4E0],"tree_param":{"num_deleted":"0","num_feature":"24","num_nodes":"9","size_leaf_vector":"1"}},{"base_weights":[2.5584047E0,-1.3110881E0,1.7147446E0,-5.839334E0,2.8521938E0,-3.7221527E-1,1.486988E-1,2.4926452E-1,-1.673973E-1],"categories":[],"categories_nodes":[],"categories_segments":[],"categories_sizes":[],"default_left":[0,0,0,0,0,0,0,0,0],"id":82,"left_children":[1,3,-1,5,7,-1,-1,-1,-1],"loss_changes":[4.5273667E3,6.757838E2,0E0,2.869804E2,2.8548413E2,0E0,0E0,0E0,0E0],"parents":[2147483647,0,0,1,1,3,3,4,4],"right_children":[2,4,-1,6,8,-1,-1,-1,-1],"split_conditions":[3.3E0,6.087E0,1.7147446E0,5E-1,6E-1,-3.7221527E-1,1.486988E-1,2.4926452E-1,-1.673973E-1],"split_indices":[0,13,0,8,7,0,0,0,0],"split_type":[0,0,0,0,0,0,0,0,0],"sum_hessian":[3.4E1,3.2E1,2E0,1.5E1,1.7E1,1.3E1,2E0,1.3E1,4E0],"tree_param":{"num_deleted":"0","num_feature":"24","num_nodes":"9","size_leaf_vector":"1"}},{"base_weights":[3.0361474E0,-9.0784633E-1,2.1527505E0,-1.0551252E1,1.6094779E0,-0E0,-6.8180543E-1,1.8215655E-1,-1.4269397E-1],"categories":[],"categories_nodes":[],"categories_segments":[],"categories_sizes":[],"default_left":[0,0,0,0,0,0,0,0,0],"id":83,"left_children":[1,3,-1,5,7,-1,-1,-1,-1],"loss_changes":[7.04395E3,1.0580093E3,0E0,2.9964386E2,3.3888098E2,0E0,0E0,0E0,0E0],"parents":[2147483647,0,0,1,1,3,3,4,4],"right_children":[2,4,-1,6,8,-1,-1,-1,-1],"split_conditions":[3.7E1,7E-1,2.1527505E0,2.5E-1,2.3E0,-0E0,-6.8180543E-1,1.8215655E-1,-1.4269397E-1],"split_indices":[16,1,0,1,3,0,0,0,0],"split_type":[0,0,0,0,0,0,0,0,0],"sum_hessian":[4.2E1,4E1,2E0,7E0,3.3E1,2E0,5E0,2.3E1,1E1],"tree_param":{"num_deleted":"0","num_feature":"24","num_nodes":"9","size_leaf_vector":"1"}},{"base_weights":[3.642692E0,-8.124063E-2,2.098931E0,-9.013519E0,2.1424534E0,-8.386566E-1,-9.663674E-2,2.4479364E-1,-1.1658915E-1],"categories":[],"categories_nodes":[],"categories_segments":[],"categories_sizes":[],"default_left":[0,0,0,0,0,0,0,0,0],"id":84,"left_children":[1,3,-1,5,7,-1,-1,-1,-1],"loss_changes":[6.4519883E3,8.961518E2,0E0,4.2030835E2,4.6761444E2,0E0,0E0,0E0,0E0],"parents":[2147483647,0,0,1,1,3,3,4,4],"right_children":[2,4,-1,6,8,-1,-1,-1,-1],"split_conditions":[1.8E1,4E0,2.098931E0,2.5702E2,1E1,-8.386566E-1,-9.663674E-2,2.4479364E-1,-1.1658915E-1],"split_indices":[12,15,0,21,20,0,0,0,0],"split_type":[0,0,0,0,0,0,0,0,0],"sum_hessian":[4.3E1,4.1E1,2E0,7E0,3.4E1,2E0,5E0,2.1E1,1.3E1],"tree_param":{"num_deleted":"0","num_feature":"24","num_nodes":"9","size_leaf_vector":"1"}},{"base_weights":[2.0164552E0,-1.3710793E0,1.6657403E0,-3.3633049E0,5.74016E0,-9.005714E-2,-4.0666243E-1,3.880454E-1,-2.7061462E-2],"categories":[],"categories_nodes":[],"categories_segments":[],"categories_sizes":[],"default_left":[0,0,0,0,0,0,0,0,0],"id":85,"left_children":[1,3,-1,5,7,-1,-1,-1,-1],"loss_changes":[4.348296E3,5.757767E2,0E0,1.9672873E2,1.2624863E2,0E0,0E0,0E0,0E0],"parents":[2147483647,0,0,1,1,3,3,4,4],"right_children":[2,4,-1,6,8,-1,-1,-1,-1],"split_conditions":[3.7E1,1.9E0,1.6657403E0,1.5E1,2.3E1,-9.005714E-2,-4.0666243E-1,3.880454E-1,-2.7061462E-2],"split_indices":[16,0,0,1,16,0,0,0,0],"split_type":[0,0,0,0,0,0,0,0,0],"sum_hessian":[3.8E1,3.6E1,2E0,2.9E1,7E0,2.4E1,5E0,5E0,2E0],"tree_param":{"num_deleted":"0","num_feature":"24","num_nodes":"9","size_leaf_vector":"1"}},{"base_weights":[7.6954347E-1,-2.1405582E0,1.5896683E0,-4.81829E0,4.0587854E0,-4.969123E-1,-1.2379748E-1,3.201735E-1,-1.3115174E-1],"categories":[],"categories_nodes":[],"categories_segments":[],"categories_sizes":[],"default_left":[0,0,0,0,0,0,0,0,0],"id":86,"left_children":[1,3,-1,5,7,-1,-1,-1,-1],"loss_changes":[4.213649E3,7.533004E2,0E0,3.163529E2,2.5481793E2,0E0,0E0,0E0,0E0],"parents":[2147483647,0,0,1,1,3,3,4,4],"right_children":[2,4,-1,6,8,-1,-1,-1,-1],"split_conditions":[3.4E0,1.45E0,1.5896683E0,7E-1,9.8E0,-4.969123E-1,-1.2379748E-1,3.201735E-1,-1.3115174E-1],"split_indices":[0,0,0,1,20,0,0,0,0],"split_type":[0,0,0,0,0,0,0,0,0],"sum_hessian":[4.3E1,4.1E1,2E0,2.9E1,1.2E1,7E0,2.2E1,9E0,3E0],"tree_param":{"num_deleted":"0","num_feature":"24","num_nodes":"9","size_leaf_vector":"1"}},{"base_weights":[2.4461012E0,-1.1139718E0,1.9809418E0,-9.301157E0,1.2745937E0,-6.9040656E-1,-8.052318E-2,-4.2357635E-2,3.8239476E-1],"categories":[],"categories_nodes":[],"categories_segments":[],"categories_sizes":[],"default_left":[0,0,0,0,0,0,0,0,0],"id":87,"left_children":[1,3,-1,5,7,-1,-1,-1,-1],"loss_changes":[6.0627153E3,8.686156E2,0E0,2.9443335E2,4.896467E2,0E0,0E0,0E0,0E0],"parents":[2147483647,0,0,1,1,3,3,4,4],"right_children":[2,4,-1,6,8,-1,-1,-1,-1],"split_conditions":[3.39E1,4E0,1.9809418E0,7E-1,3.7518E1,-6.9040656E-1,-8.052318E-2,-4.2357635E-2,3.8239476E-1],"split_indices":[15,15,0,1,22,0,0,0,0],"split_type":[0,0,0,0,0,0,0,0,0],"sum_hessian":[4.3E1,4.1E1,2E0,8E0,3.3E1,4E0,4E0,2.6E1,7E0],"tree_param":{"num_deleted":"0","num_feature":"24","num_nodes":"9","size_leaf_vector":"1"}},{"base_weights":[2.5338862E0,-1.491672E0,1.9314178E0,1.060874E0,-1.280569E1,-9.150391E-2,2.3073152E-1,-8.2079107E-1,-8.825912E-2],"categories":[],"categories_nodes":[],"categories_segments":[],"categories_sizes":[],"default_left":[0,0,0,0,0,0,0,0,0],"id":88,"left_children":[1,3,-1,5,7,-1,-1,-1,-1],"loss_changes":[5.8005254E3,1.1015863E3,0E0,3.4704218E2,2.1195935E2,0E0,0E0,0E0,0E0],"parents":[2147483647,0,0,1,1,3,3,4,4],"right_children":[2,4,-1,6,8,-1,-1,-1,-1],"split_conditions":[1.58E1,8E-1,1.9314178E0,5E-1,1E0,-9.150391E-2,2.3073152E-1,-8.2079107E-1,-8.825912E-2],"split_indices":[12,7,0,8,0,0,0,0,0],"split_type":[0,0,0,0,0,0,0,0,0],"sum_hessian":[3.7E1,3.5E1,2E0,3E1,5E0,1.7E1,1.3E1,3E0,2E0],"tree_param":{"num_deleted":"0","num_feature":"24","num_nodes":"9","size_leaf_vector":"1"}},{"base_weights":[1.4023633E0,-2.5799584E0,1.8831329E0,-1.0730161E1,3.9114276E-1,1.8935395E-2,-6.832277E-1,-1.04877375E-1,1.5134634E-1],"categories":[],"categories_nodes":[],"categories_segments":[],"categories_sizes":[],"default_left":[0,0,0,0,0,0,0,0,0],"id":89,"left_children":[1,3,-1,5,7,-1,-1,-1,-1],"loss_changes":[5.843484E3,9.095214E2,0E0,3.4297058E2,2.0339278E2,0E0,0E0,0E0,0E0],"parents":[2147483647,0,0,1,1,3,3,4,4],"right_children":[2,4,-1,6,8,-1,-1,-1,-1],"split_conditions":[1.58E1,1.3761E1,1.8831329E0,5E-1,4E-1,1.8935395E-2,-6.832277E-1,-1.04877375E-1,1.5134634E-1],"split_indices":[12,17,0,7,7,0,0,0,0],"split_type":[0,0,0,0,0,0,0,0,0],"sum_hessian":[3.7E1,3.5E1,2E0,8E0,2.7E1,2E0,6E0,1.4E1,1.3E1],"tree_param":{"num_deleted":"0","num_feature":"24","num_nodes":"9","size_leaf_vector":"1"}},{"base_weights":[-7.6359636E-1,-8.1106615E0,2.565336E0,-9.576657E0,-0E0,8.031469E-1,6.526222E-1,-8.043009E-1,-1.5258217E-1,2.0081614E-1,-1.3592814E-1],"categories":[],"categories_nodes":[],"categories_segments":[],"categories_sizes":[],"default_left":[0,0,0,0,0,0,0,0,0,0,0],"id":90,"left_children":[1,3,5,7,-1,9,-1,-1,-1,-1,-1],"loss_changes":[1.0227011E3,1.5365924E2,5.0803387E2,3.5946393E2,0E0,3.2801465E2,0E0,0E0,0E0,0E0,0E0],"parents":[2147483647,0,0,1,1,2,2,3,3,5,5],"right_children":[2,4,6,8,-1,10,-1,-1,-1,-1,-1],"split_conditions":[1.435E1,7.419E0,3.7E1,2.5702E2,-0E0,1.839E1,6.526222E-1,-8.043009E-1,-1.5258217E-1,2.0081614E-1,-1.3592814E-1],"split_indices":[15,13,16,21,0,16,0,0,0,0,0],"split_type":[0,0,0,0,0,0,0,0,0,0,0],"sum_hessian":[3.8E1,1.1E1,2.7E1,9E0,2E0,2.5E1,2E0,3E0,6E0,1.3E1,1.2E1],"tree_param":{"num_deleted":"0","num_feature":"24","num_nodes":"11","size_leaf_vector":"1"}},{"base_weights":[2.0431373E0,-1.4816834E0,1.8197387E0,-9.627528E0,2.1786761E-1,-8.648865E-2,-7.2804797E-1,-7.275766E-2,2.0890616E-1],"categories":[],"categories_nodes":[],"categories_segments":[],"categories_sizes":[],"default_left":[0,0,0,0,0,0,0,0,0],"id":91,"left_children":[1,3,-1,5,7,-1,-1,-1,-1],"loss_changes":[5.210809E3,5.62671E2,0E0,2.1422156E2,2.4541675E2,0E0,0E0,0E0,0E0],"parents":[2147483647,0,0,1,1,3,3,4,4],"right_children":[2,4,-1,6,8,-1,-1,-1,-1],"split_conditions":[1.8E1,1.45E0,1.8197387E0,5E-1,2.245E1,-8.648865E-2,-7.2804797E-1,-7.275766E-2,2.0890616E-1],"split_indices":[12,16,0,7,15,0,0,0,0],"split_type":[0,0,0,0,0,0,0,0,0],"sum_hessian":[4E1,3.8E1,2E0,5E0,3.3E1,3E0,2E0,2.4E1,9E0],"tree_param":{"num_deleted":"0","num_feature":"24","num_nodes":"9","size_leaf_vector":"1"}},{"base_weights":[-1.433021E0,3.602178E-1,-9.805032E0,-2.8091521E0,4.308153E0,-6.203406E-1,-7.6264575E-2,-2.557095E-1,5.445235E-2,-9.7970076E-2,3.382786E-1],"categories":[],"categories_nodes":[],"categories_segments":[],"categories_sizes":[],"default_left":[0,0,0,0,0,0,0,0,0,0,0],"id":92,"left_children":[1,3,5,7,9,-1,-1,-1,-1,-1,-1],"loss_changes":[5.972939E2,4.5037793E2,1.0598035E2,1.9286163E2,2.7534808E2,0E0,0E0,0E0,0E0,0E0,0E0],"parents":[2147483647,0,0,1,1,2,2,3,3,4,4],"right_children":[2,4,6,8,10,-1,-1,-1,-1,-1,-1],"split_conditions":[8E-1,5E-1,9.5E-1,7.419E0,7.06E1,-6.203406E-1,-7.6264575E-2,-2.557095E-1,5.445235E-2,-9.7970076E-2,3.382786E-1],"split_indices":[7,8,0,13,21,0,0,0,0,0,0],"split_type":[0,0,0,0,0,0,0,0,0,0,0],"sum_hessian":[3.7E1,3.2E1,5E0,1.8E1,1.4E1,3E0,2E0,1.1E1,7E0,4E0,1E1],"tree_param":{"num_deleted":"0","num_feature":"24","num_nodes":"11","size_leaf_vector":"1"}},{"base_weights":[1.4881849E0,-2.519553E0,1.4523538E0,-5.179877E0,3.4010468E0,-4.464932E-1,-4.610247E-2,2.5890502E-1,-1.3085556E-1],"categories":[],"categories_nodes":[],"categories_segments":[],"categories_sizes":[],"default_left":[0,0,0,0,0,0,0,0,0],"id":93,"left_children":[1,3,-1,5,7,-1,-1,-1,-1],"loss_changes":[4.35669E3,5.873983E2,0E0,3.777765E2,1.5671892E2,0E0,0E0,0E0,0E0],"parents":[2147483647,0,0,1,1,3,3,4,4],"right_children":[2,4,-1,6,8,-1,-1,-1,-1],"split_conditions":[8E0,2.113E1,1.4523538E0,1E0,1.55E0,-4.464932E-1,-4.610247E-2,2.5890502E-1,-1.3085556E-1],"split_indices":[5,15,0,0,5,0,0,0,0],"split_type":[0,0,0,0,0,0,0,0,0],"sum_hessian":[3.6E1,3.3E1,3E0,2.3E1,1E1,1.1E1,1.2E1,8E0,2E0],"tree_param":{"num_deleted":"0","num_feature":"24","num_nodes":"9","size_leaf_vector":"1"}},{"base_weights":[1.8835173E0,-1.4159791E0,1.7443298E0,-8.1929865E0,4.4652152E-1,-1.2884827E-1,-6.899765E-1,1.4384952E-1,-1.9418864E-1],"categories":[],"categories_nodes":[],"categories_segments":[],"categories_sizes":[],"default_left":[0,0,0,0,0,0,0,0,0],"id":94,"left_children":[1,3,-1,5,7,-1,-1,-1,-1],"loss_changes":[4.797955E3,5.2869934E2,0E0,2.0406812E2,3.7968167E2,0E0,0E0,0E0,0E0],"parents":[2147483647,0,0,1,1,3,3,4,4],"right_children":[2,4,-1,6,8,-1,-1,-1,-1],"split_conditions":[1.475E1,7E-1,1.7443298E0,5E-1,1E1,-1.2884827E-1,-6.899765E-1,1.4384952E-1,-1.9418864E-1],"split_indices":[12,1,0,1,20,0,0,0,0],"split_type":[0,0,0,0,0,0,0,0,0],"sum_hessian":[4.1E1,3.9E1,2E0,7E0,3.2E1,5E0,2E0,2.1E1,1.1E1],"tree_param":{"num_deleted":"0","num_feature":"24","num_nodes":"9","size_leaf_vector":"1"}},{"base_weights":[2.7245896E0,-4.4879E-1,1.7007217E0,-2.16249E0,3.536485E0,-2.1998444E-1,1.8253999E-3,2.95204E-1,-5.5520125E-2],"categories":[],"categories_nodes":[],"categories_segments":[],"categories_sizes":[],"default_left":[0,0,0,0,0,0,0,0,0],"id":95,"left_children":[1,3,-1,5,7,-1,-1,-1,-1],"loss_changes":[4.3169795E3,2.946204E2,0E0,1.500907E2,1.5853397E2,0E0,0E0,0E0,0E0],"parents":[2147483647,0,0,1,1,3,3,4,4],"right_children":[2,4,-1,6,8,-1,-1,-1,-1],"split_conditions":[1.8E1,2.245E1,1.7007217E0,3E-1,5.5E-1,-2.1998444E-1,1.8253999E-3,2.95204E-1,-5.5520125E-2],"split_indices":[12,15,0,8,8,0,0,0,0],"split_type":[0,0,0,0,0,0,0,0,0],"sum_hessian":[4.1E1,3.9E1,2E0,2.8E1,1.1E1,1.3E1,1.5E1,7E0,4E0],"tree_param":{"num_deleted":"0","num_feature":"24","num_nodes":"9","size_leaf_vector":"1"}},{"base_weights":[1.6431798E0,-1.8773065E0,2.3475199E1,-6.3328795E0,-2.50295E-1,3.2329637E-1,1.4310936E0,-7.9994015E-2,-6.2537193E-1,8.724838E-2,-2.0296896E-1],"categories":[],"categories_nodes":[],"categories_segments":[],"categories_sizes":[],"default_left":[0,0,0,0,0,0,0,0,0,0,0],"id":96,"left_children":[1,3,5,7,9,-1,-1,-1,-1,-1,-1],"loss_changes":[3.3270308E3,2.6901044E2,1.3756934E2,2.4516736E2,2.4332785E2,0E0,0E0,0E0,0E0,0E0,0E0],"parents":[2147483647,0,0,1,1,2,2,3,3,4,4],"right_children":[2,4,6,8,10,-1,-1,-1,-1,-1,-1],"split_conditions":[2.73E1,7.5E-1,2.3E1,7E-1,1.839E1,3.2329637E-1,1.4310936E0,-7.9994015E-2,-6.2537193E-1,8.724838E-2,-2.0296896E-1],"split_indices":[15,0,16,0,16,0,0,0,0,0,0],"split_type":[0,0,0,0,0,0,0,0,0,0,0],"sum_hessian":[4E1,3.6E1,4E0,8E0,2.8E1,2E0,2E0,6E0,2E0,1.9E1,9E0],"tree_param":{"num_deleted":"0","num_feature":"24","num_nodes":"11","size_leaf_vector":"1"}},{"base_weights":[1.5294843E0,-1.5494206E0,1.6224259E0,-7.816379E0,1.8591668E-1,-1.19896375E-1,-6.63274E-1,1.19505964E-1,-1.4457113E-1],"categories":[],"categories_nodes":[],"categories_segments":[],"categories_sizes":[],"default_left":[0,0,0,0,0,0,0,0,0],"id":97,"left_children":[1,3,-1,5,7,-1,-1,-1,-1],"loss_changes":[4.209463E3,4.5260843E2,0E0,1.9428015E2,2.4419572E2,0E0,0E0,0E0,0E0],"parents":[2147483647,0,0,1,1,3,3,4,4],"right_children":[2,4,-1,6,8,-1,-1,-1,-1],"split_conditions":[1.8E1,7E-1,1.6224259E0,5E-1,1E1,-1.19896375E-1,-6.63274E-1,1.19505964E-1,-1.4457113E-1],"split_indices":[12,1,0,1,20,0,0,0,0],"split_type":[0,0,0,0,0,0,0,0,0],"sum_hessian":[4.1E1,3.9E1,2E0,7E0,3.2E1,5E0,2E0,1.9E1,1.3E1],"tree_param":{"num_deleted":"0","num_feature":"24","num_nodes":"9","size_leaf_vector":"1"}},{"base_weights":[2.1888034E0,-1.1909629E0,1.581865E0,-9.311179E0,7.033416E-1,-6.170691E-1,-3.71418E-2,2.108451E-1,-1.7866883E-1],"categories":[],"categories_nodes":[],"categories_segments":[],"categories_sizes":[],"default_left":[0,0,0,0,0,0,0,0,0],"id":98,"left_children":[1,3,-1,5,7,-1,-1,-1,-1],"loss_changes":[3.872684E3,5.711596E2,0E0,1.5686938E2,4.9628067E2,0E0,0E0,0E0,0E0],"parents":[2147483647,0,0,1,1,3,3,4,4],"right_children":[2,4,-1,6,8,-1,-1,-1,-1],"split_conditions":[3.39E1,4E0,1.581865E0,1.4535E1,1.839E1,-6.170691E-1,-3.71418E-2,2.108451E-1,-1.7866883E-1],"split_indices":[15,15,0,17,16,0,0,0,0],"split_type":[0,0,0,0,0,0,0,0,0],"sum_hessian":[3.6E1,3.4E1,2E0,5E0,2.9E1,3E0,2E0,1.6E1,1.3E1],"tree_param":{"num_deleted":"0","num_feature":"24","num_nodes":"9","size_leaf_vector":"1"}},{"base_weights":[2.9466403E0,6.878141E-2,1.5423187E0,-3.0358372E0,2.541706E0,6.761952E-2,-2.6538473E-1,3.0073145E-1,-1.5533243E-2],"categories":[],"categories_nodes":[],"categories_segments":[],"categories_sizes":[],"default_left":[0,0,0,0,0,0,0,0,0],"id":99,"left_children":[1,3,-1,5,7,-1,-1,-1,-1],"loss_changes":[3.4328335E3,3.2996234E2,0E0,2.0575294E2,2.443346E2,0E0,0E0,0E0,0E0],"parents":[2147483647,0,0,1,1,3,3,4,4],"right_children":[2,4,-1,6,8,-1,-1,-1,-1],"split_conditions":[1.8E1,5.25E0,1.5423187E0,7E-1,8.4E0,6.761952E-2,-2.6538473E-1,3.0073145E-1,-1.5533243E-2],"split_indices":[12,1,0,12,20,0,0,0,0],"split_type":[0,0,0,0,0,0,0,0,0],"sum_hessian":[4.1E1,3.9E1,2E0,1.7E1,2.2E1,6E0,1.1E1,9E0,1.3E1],"tree_param":{"num_deleted":"0","num_feature":"24","num_nodes":"9","size_leaf_vector":"1"}},{"base_weights":[1.1617705E0,-2.1014895E0,1.5037613E0,-5.6475773E0,6.4580053E-1,-4.6809694E-1,-7.482865E-2,1.1141213E-1,-2.1167298E-1],"categories":[],"categories_nodes":[],"categories_segments":[],"categories_sizes":[],"default_left":[0,0,0,0,0,0,0,0,0],"id":100,"left_children":[1,3,-1,5,7,-1,-1,-1,-1],"loss_changes":[3.7257732E3,3.6051202E2,0E0,2.1324234E2,1.8772897E2,0E0,0E0,0E0,0E0],"parents":[2147483647,0,0,1,1,3,3,4,4],"right_children":[2,4,-1,6,8,-1,-1,-1,-1],"split_conditions":[8E0,2.3E-1,1.5037613E0,7.419E0,1.5E1,-4.6809694E-1,-7.482865E-2,1.1141213E-1,-2.1167298E-1],"split_indices":[5,18,0,13,1,0,0,0,0],"split_type":[0,0,0,0,0,0,0,0,0],"sum_hessian":[3.6E1,3.4E1,2E0,1.4E1,2E1,6E0,8E0,1.6E1,4E0],"tree_param":{"num_deleted":"0","num_feature":"24","num_nodes":"9","size_leaf_vector":"1"}},{"base_weights":[1.1996901E0,-1.4606345E0,1.4661667E0,-8.265293E0,7.6082796E-2,-1.3545889E-1,-6.17091E-1,-3.5540145E-2,2.7482364E-1],"categories":[],"categories_nodes":[],"categories_segments":[],"categories_sizes":[],"default_left":[0,0,0,0,0,0,0,0,0],"id":101,"left_children":[1,3,-1,5,7,-1,-1,-1,-1],"loss_changes":[3.4664036E3,4.5499628E2,0E0,1.0679932E2,1.6802005E2,0E0,0E0,0E0,0E0],"parents":[2147483647,0,0,1,1,3,3,4,4],"right_children":[2,4,-1,6,8,-1,-1,-1,-1],"split_conditions":[1.8E1,7E-1,1.4661667E0,5E-1,2E1,-1.3545889E-1,-6.17091E-1,-3.5540145E-2,2.7482364E-1],"split_indices":[12,1,0,1,1,0,0,0,0],"split_type":[0,0,0,0,0,0,0,0,0],"sum_hessian":[4.3E1,4.1E1,2E0,6E0,3.5E1,4E0,2E0,3.2E1,3E0],"tree_param":{"num_deleted":"0","num_feature":"24","num_nodes":"9","size_leaf_vector":"1"}},{"base_weights":[1.8880676E0,-6.7204463E-1,1.429512E0,-7.412037E0,8.080642E-1,1.4289856E-2,-5.0782907E-1,-1.5600902E-2,1.972345E-1],"categories":[],"categories_nodes":[],"categories_segments":[],"categories_sizes":[],"default_left":[0,0,0,0,0,0,0,0,0],"id":102,"left_children":[1,3,-1,5,7,-1,-1,-1,-1],"loss_changes":[3.128612E3,4.4424545E2,0E0,1.7975717E2,1.3426929E2,0E0,0E0,0E0,0E0],"parents":[2147483647,0,0,1,1,3,3,4,4],"right_children":[2,4,-1,6,8,-1,-1,-1,-1],"split_conditions":[1.8E1,7E-1,1.429512E0,2.5E-1,3.7518E1,1.4289856E-2,-5.0782907E-1,-1.5600902E-2,1.972345E-1],"split_indices":[12,1,0,1,22,0,0,0,0],"split_type":[0,0,0,0,0,0,0,0,0],"sum_hessian":[4.3E1,4.1E1,2E0,6E0,3.5E1,2E0,4E0,2.7E1,8E0],"tree_param":{"num_deleted":"0","num_feature":"24","num_nodes":"9","size_leaf_vector":"1"}},{"base_weights":[2.2102966E0,-8.3488506E-1,1.3937744E0,-5.7786126E0,1.584895E0,-0E0,-4.9289423E-1,1.8850426E-1,-1.969328E-1],"categories":[],"categories_nodes":[],"categories_segments":[],"categories_sizes":[],"default_left":[0,0,0,0,0,0,0,0,0],"id":103,"left_children":[1,3,-1,5,7,-1,-1,-1,-1],"loss_changes":[2.9518074E3,4.3910953E2,0E0,2.7953674E2,3.3136414E2,0E0,0E0,0E0,0E0],"parents":[2147483647,0,0,1,1,3,3,4,4],"right_children":[2,4,-1,6,8,-1,-1,-1,-1],"split_conditions":[5E0,1.3761E1,1.3937744E0,2.5E-1,1.525E1,-0E0,-4.9289423E-1,1.8850426E-1,-1.969328E-1],"split_indices":[3,17,0,12,1,0,0,0,0],"split_type":[0,0,0,0,0,0,0,0,0],"sum_hessian":[3.5E1,3.3E1,2E0,1E1,2.3E1,5E0,5E0,1.7E1,6E0],"tree_param":{"num_deleted":"0","num_feature":"24","num_nodes":"9","size_leaf_vector":"1"}},{"base_weights":[-1.1006668E0,-6.296435E0,1.557979E0,-1.6989288E0,-5.8883995E-1,3.4561913E0,-3.161845E0,-2.1725102E-1,2.1588592E-1,3.1236085E-1,-1.2892647E-1,-2.0782034E-1,1.7280579E-3],"categories":[],"categories_nodes":[],"categories_segments":[],"categories_sizes":[],"default_left":[0,0,0,0,0,0,0,0,0,0,0,0,0],"id":104,"left_children":[1,3,5,7,-1,9,11,-1,-1,-1,-1,-1,-1],"loss_changes":[5.745369E2,3.0599036E2,2.7286145E2,1.967408E2,0E0,3.8775586E2,3.0959435E1,0E0,0E0,0E0,0E0,0E0,0E0],"parents":[2147483647,0,0,1,1,2,2,3,3,5,5,6,6],"right_children":[2,4,6,8,-1,10,12,-1,-1,-1,-1,-1,-1],"split_conditions":[2.3E-1,8E-1,1E1,1.4E1,-5.8883995E-1,2.417E2,5E-1,-2.1725102E-1,2.1588592E-1,3.1236085E-1,-1.2892647E-1,-2.0782034E-1,1.7280579E-3],"split_indices":[18,7,20,1,0,21,7,0,0,0,0,0,0],"split_type":[0,0,0,0,0,0,0,0,0,0,0,0,0],"sum_hessian":[3.8E1,1.2E1,2.6E1,8E0,4E0,1.9E1,7E0,6E0,2E0,1.3E1,6E0,5E0,2E0],"tree_param":{"num_deleted":"0","num_feature":"24","num_nodes":"13","size_leaf_vector":"1"}},{"base_weights":[-1.2109886E0,-2.0840125E0,3.7816164E-1,-5.7055826E0,-1.6740361E-1,-5.7172137E-3,-4.0548062E-1,-1.4386378E-1,1.17539875E-1],"categories":[],"categories_nodes":[],"categories_segments":[],"categories_sizes":[],"default_left":[0,0,0,0,0,0,0,0,0],"id":105,"left_children":[1,3,-1,5,7,-1,-1,-1,-1],"loss_changes":[3.351883E2,2.5891632E2,0E0,1.6877298E2,1.980391E2,0E0,0E0,0E0,0E0],"parents":[2147483647,0,0,1,1,3,3,4,4],"right_children":[2,4,-1,6,8,-1,-1,-1,-1],"split_conditions":[3.7E1,9.5E-1,3.7816164E-1,2.5E-1,4E-1,-5.7172137E-3,-4.0548062E-1,-1.4386378E-1,1.17539875E-1],"split_indices":[16,0,0,3,7,0,0,0,0],"split_type":[0,0,0,0,0,0,0,0,0],"sum_hessian":[3.8E1,3.6E1,2E0,1.1E1,2.5E1,4E0,7E0,1.2E1,1.3E1],"tree_param":{"num_deleted":"0","num_feature":"24","num_nodes":"9","size_leaf_vector":"1"}},{"base_weights":[-1.1804831E0,-6.396769E0,2.1401803E-1,-9.381358E0,-7.827759E-3,1.9742827E0,-4.5315003E0,-1.3902664E-1,-5.5832523E-1,1.9923848E-1,-2.1306828E-2,-3.1447563E-1,5.6263734E-2],"categories":[],"categories_nodes":[],"categories_segments":[],"categories_sizes":[],"default_left":[0,0,0,0,0,0,0,0,0,0,0,0,0],"id":106,"left_children":[1,3,5,7,-1,9,11,-1,-1,-1,-1,-1,-1],"loss_changes":[3.1134235E2,1.5991391E2,3.089822E2,1.6294556E0,0E0,1.3547775E2,1.1618378E2,0E0,0E0,0E0,0E0,0E0,0E0],"parents":[2147483647,0,0,1,1,2,2,3,3,5,5,6,6],"right_children":[2,4,6,8,-1,10,12,-1,-1,-1,-1,-1,-1],"split_conditions":[7E-1,2.7304E2,2.13E1,5E-1,-7.827759E-3,7.143E0,3.08E1,-1.3902664E-1,-5.5832523E-1,1.9923848E-1,-2.1306828E-2,-3.1447563E-1,5.6263734E-2],"split_indices":[1,21,16,1,0,13,16,0,0,0,0,0,0],"split_type":[0,0,0,0,0,0,0,0,0,0,0,0,0],"sum_hessian":[4E1,7E0,3.3E1,4E0,3E0,2.5E1,8E0,2E0,2E0,1.3E1,1.2E1,6E0,2E0],"tree_param":{"num_deleted":"0","num_feature":"24","num_nodes":"13","size_leaf_vector":"1"}},{"base_weights":[-1.2928764E0,1.03452794E-1,-5.185382E-1,-7.9270744E-1,3.6730042E-1,-7.703207E-2,2.544075E-1],"categories":[],"categories_nodes":[],"categories_segments":[],"categories_sizes":[],"default_left":[0,0,0,0,0,0,0],"id":107,"left_children":[1,3,-1,5,-1,-1,-1],"loss_changes":[4.762811E2,2.3559978E2,0E0,1.5465602E2,0E0,0E0,0E0],"parents":[2147483647,0,0,1,1,3,3],"right_children":[2,4,-1,6,-1,-1,-1],"split_conditions":[8.5E-1,3.08E1,-5.185382E-1,3E0,3.6730042E-1,-7.703207E-2,2.544075E-1],"split_indices":[7,16,0,0,0,0,0],"split_type":[0,0,0,0,0,0,0],"sum_hessian":[3.5E1,3.2E1,3E0,3E1,2E0,2.8E1,2E0],"tree_param":{"num_deleted":"0","num_feature":"24","num_nodes":"7","size_leaf_vector":"1"}},{"base_weights":[1.8459691E0,-1.2538536E0,1.331076E0,8.830708E-1,-9.514735E0,-1.4358114E-1,1.6579293E-1,-5.6335604E-1,-1.2209435E-1],"categories":[],"categories_nodes":[],"categories_segments":[],"categories_sizes":[],"default_left":[0,0,0,0,0,0,0,0,0],"id":108,"left_children":[1,3,-1,5,7,-1,-1,-1,-1],"loss_changes":[2.7674363E3,6.036652E2,0E0,2.7502832E2,2.4879883E1,0E0,0E0,0E0,0E0],"parents":[2147483647,0,0,1,1,3,3,4,4],"right_children":[2,4,-1,6,8,-1,-1,-1,-1],"split_conditions":[8E0,8E-1,1.331076E0,5E0,1.3761E1,-1.4358114E-1,1.6579293E-1,-5.6335604E-1,-1.2209435E-1],"split_indices":[5,7,0,1,17,0,0,0,0],"split_type":[0,0,0,0,0,0,0,0,0],"sum_hessian":[3.3E1,3.1E1,2E0,2.6E1,5E0,1E1,1.6E1,3E0,2E0],"tree_param":{"num_deleted":"0","num_feature":"24","num_nodes":"9","size_leaf_vector":"1"}},{"base_weights":[2.406115E0,-0E0,1.2977997E0,-6.877104E-1,2.5771973E-1,2.9317189E-2,-2.83725E-1],"categories":[],"categories_nodes":[],"categories_segments":[],"categories_sizes":[],"default_left":[0,0,0,0,0,0,0],"id":109,"left_children":[1,3,-1,5,-1,-1,-1],"loss_changes":[2.4459106E3,1.5081085E2,0E0,2.5062917E2,0E0,0E0,0E0],"parents":[2147483647,0,0,1,1,3,3],"right_children":[2,4,-1,6,-1,-1,-1],"split_conditions":[1.8E1,2E1,1.2977997E0,2.35E1,2.5771973E-1,2.9317189E-2,-2.83725E-1],"split_indices":[12,1,0,16,0,0,0],"split_type":[0,0,0,0,0,0,0],"sum_hessian":[4.1E1,3.9E1,2E0,3.6E1,3E0,3E1,6E0],"tree_param":{"num_deleted":"0","num_feature":"24","num_nodes":"7","size_leaf_vector":"1"}},{"base_weights":[-8.8544464E-1,4.4432023E-1,-7.3527136E0,-2.9022439E0,1.8452265E0,-4.5247588E-1,-7.1517564E-2,1.3659974E-2,-2.1119176E-1,2.691794E-1,-1.4888848E-2],"categories":[],"categories_nodes":[],"categories_segments":[],"categories_sizes":[],"default_left":[0,0,0,0,0,0,0,0,0,0,0],"id":110,"left_children":[1,3,5,7,9,-1,-1,-1,-1,-1,-1],"loss_changes":[3.5398602E2,1.7426988E2,3.921573E1,5.0446228E1,2.0289983E2,0E0,0E0,0E0,0E0,0E0,0E0],"parents":[2147483647,0,0,1,1,2,2,3,3,4,4],"right_children":[2,4,6,8,10,-1,-1,-1,-1,-1,-1],"split_conditions":[8E-1,5E0,9.5E-1,1.3395E1,7.143E0,-4.5247588E-1,-7.1517564E-2,1.3659974E-2,-2.1119176E-1,2.691794E-1,-1.4888848E-2],"split_indices":[7,1,0,17,13,0,0,0,0,0,0],"split_type":[0,0,0,0,0,0,0,0,0,0,0],"sum_hessian":[3.8E1,3.3E1,5E0,9E0,2.4E1,3E0,2E0,3E0,6E0,8E0,1.6E1],"tree_param":{"num_deleted":"0","num_feature":"24","num_nodes":"11","size_leaf_vector":"1"}},{"base_weights":[-3.061233E-1,-1.6627017E0,4.317468E0,1.2975998E-1,-2.1066456E0,6.523028E0,-1.9865112E-2,-2.623961E-2,-2.4928382E-1,5.6598663E-2,4.0633303E-1],"categories":[],"categories_nodes":[],"categories_segments":[],"categories_sizes":[],"default_left":[0,0,0,0,0,0,0,0,0,0,0],"id":111,"left_children":[1,3,5,-1,7,9,-1,-1,-1,-1,-1],"loss_changes":[2.7646506E2,7.495919E1,1.1223314E2,0E0,1.3774641E2,3.748929E1,0E0,0E0,0E0,0E0,0E0],"parents":[2147483647,0,0,1,1,2,2,4,4,5,5],"right_children":[2,4,6,-1,8,10,-1,-1,-1,-1,-1],"split_conditions":[1.9E0,5E-1,6.4395E1,1.2975998E-1,1.81E1,2.174E0,-1.9865112E-2,-2.623961E-2,-2.4928382E-1,5.6598663E-2,4.0633303E-1],"split_indices":[0,0,22,0,15,13,0,0,0,0,0],"split_type":[0,0,0,0,0,0,0,0,0,0,0],"sum_hessian":[4E1,3.2E1,8E0,2E0,3E1,5E0,3E0,2.1E1,9E0,2E0,3E0],"tree_param":{"num_deleted":"0","num_feature":"24","num_nodes":"11","size_leaf_vector":"1"}},{"base_weights":[1.2895359E0,-1.0935096E0,1.2597992E0,-4.9223785E0,8.13083E-1,-4.1398622E-2,-5.011131E-1,-7.2804905E-2,2.1560529E-1],"categories":[],"categories_nodes":[],"categories_segments":[],"categories_sizes":[],"default_left":[0,0,0,0,0,0,0,0,0],"id":112,"left_children":[1,3,-1,5,7,-1,-1,-1,-1],"loss_changes":[2.5168718E3,3.093631E2,0E0,2.7031256E2,2.4424327E2,0E0,0E0,0E0,0E0],"parents":[2147483647,0,0,1,1,3,3,4,4],"right_children":[2,4,-1,6,8,-1,-1,-1,-1],"split_conditions":[1.8E1,2.3E-1,1.2597992E0,6E-1,5E-1,-4.1398622E-2,-5.011131E-1,-7.2804905E-2,2.1560529E-1],"split_indices":[12,18,0,7,7,0,0,0,0],"split_type":[0,0,0,0,0,0,0,0,0],"sum_hessian":[4.1E1,3.9E1,2E0,1.2E1,2.7E1,8E0,4E0,1.7E1,1E1],"tree_param":{"num_deleted":"0","num_feature":"24","num_nodes":"9","size_leaf_vector":"1"}},{"base_weights":[1.8550764E-1,-1.4129732E0,4.992676E0,